// SPDX-License-Identifier: Apache-2.0
//
// quadgrid - High-accuracy quadrature grids for scientific computing
// Copyright 2025 Denny Elking
//
// Licensed under the Apache License, Version 2.0 (the "License");
// you may not use this file except in compliance with the License.
// You may obtain a copy of the License at
//
//     http://www.apache.org/licenses/LICENSE-2.0
//

#include <cstdio>
#include <cstdlib>
#include <cstring>

#include <iostream>
#include <vector>
using namespace std;



#include <quadgrid/unit_sphere_grid_lebedev.hpp>

namespace quadgrid
{ 

static const double unitSphereLebedevCrd0[114] = {
   1.000000000000000000e+00,  0.000000000000000000e+00,  0.000000000000000000e+00, -1.000000000000000000e+00,  0.000000000000000000e+00, 
   0.000000000000000000e+00,  0.000000000000000000e+00,  1.000000000000000000e+00,  0.000000000000000000e+00,  0.000000000000000000e+00, 
  -1.000000000000000000e+00,  0.000000000000000000e+00,  0.000000000000000000e+00,  0.000000000000000000e+00,  1.000000000000000000e+00, 
   0.000000000000000000e+00,  0.000000000000000000e+00, -1.000000000000000000e+00,  5.773502691896258421e-01,  5.773502691896258421e-01, 
   5.773502691896258421e-01,  5.773502691896258421e-01,  5.773502691896258421e-01, -5.773502691896258421e-01,  5.773502691896258421e-01, 
  -5.773502691896258421e-01,  5.773502691896258421e-01,  5.773502691896258421e-01, -5.773502691896258421e-01, -5.773502691896258421e-01, 
  -5.773502691896258421e-01,  5.773502691896258421e-01,  5.773502691896258421e-01, -5.773502691896258421e-01,  5.773502691896258421e-01, 
  -5.773502691896258421e-01, -5.773502691896258421e-01, -5.773502691896258421e-01,  5.773502691896258421e-01, -5.773502691896258421e-01, 
  -5.773502691896258421e-01, -5.773502691896258421e-01,  0.000000000000000000e+00,  8.880738339771152567e-01,  4.597008433809831041e-01, 
   0.000000000000000000e+00,  8.880738339771152567e-01, -4.597008433809831041e-01,  0.000000000000000000e+00, -8.880738339771152567e-01, 
   4.597008433809831041e-01,  0.000000000000000000e+00, -8.880738339771152567e-01, -4.597008433809831041e-01,  4.597008433809831041e-01, 
   0.000000000000000000e+00,  8.880738339771152567e-01, -4.597008433809831041e-01,  0.000000000000000000e+00,  8.880738339771152567e-01, 
   4.597008433809831041e-01,  0.000000000000000000e+00, -8.880738339771152567e-01, -4.597008433809831041e-01,  0.000000000000000000e+00, 
  -8.880738339771152567e-01,  8.880738339771152567e-01,  4.597008433809831041e-01,  0.000000000000000000e+00,  8.880738339771152567e-01, 
  -4.597008433809831041e-01,  0.000000000000000000e+00, -8.880738339771152567e-01,  4.597008433809831041e-01,  0.000000000000000000e+00, 
  -8.880738339771152567e-01, -4.597008433809831041e-01,  0.000000000000000000e+00,  0.000000000000000000e+00,  4.597008433809831041e-01, 
   8.880738339771152567e-01,  0.000000000000000000e+00,  4.597008433809831041e-01, -8.880738339771152567e-01,  0.000000000000000000e+00, 
  -4.597008433809831041e-01,  8.880738339771152567e-01,  0.000000000000000000e+00, -4.597008433809831041e-01, -8.880738339771152567e-01, 
   8.880738339771152567e-01,  0.000000000000000000e+00,  4.597008433809831041e-01, -8.880738339771152567e-01,  0.000000000000000000e+00, 
   4.597008433809831041e-01,  8.880738339771152567e-01,  0.000000000000000000e+00, -4.597008433809831041e-01, -8.880738339771152567e-01, 
   0.000000000000000000e+00, -4.597008433809831041e-01,  4.597008433809831041e-01,  8.880738339771152567e-01,  0.000000000000000000e+00, 
   4.597008433809831041e-01, -8.880738339771152567e-01,  0.000000000000000000e+00, -4.597008433809831041e-01,  8.880738339771152567e-01, 
   0.000000000000000000e+00, -4.597008433809831041e-01, -8.880738339771152567e-01,  0.000000000000000000e+00};
static const double unitSphereLebedevWeight0[38] = {
   1.196797201367540281e-01,  1.196797201367540281e-01,  1.196797201367540281e-01,  1.196797201367540281e-01,  1.196797201367540281e-01, 
   1.196797201367540281e-01,  4.039190554615447737e-01,  4.039190554615447737e-01,  4.039190554615447737e-01,  4.039190554615447737e-01, 
   4.039190554615447737e-01,  4.039190554615447737e-01,  4.039190554615447737e-01,  4.039190554615447737e-01,  3.590391604102620704e-01, 
   3.590391604102620704e-01,  3.590391604102620704e-01,  3.590391604102620704e-01,  3.590391604102620704e-01,  3.590391604102620704e-01, 
   3.590391604102620704e-01,  3.590391604102620704e-01,  3.590391604102620704e-01,  3.590391604102620704e-01,  3.590391604102620704e-01, 
   3.590391604102620704e-01,  3.590391604102620704e-01,  3.590391604102620704e-01,  3.590391604102620704e-01,  3.590391604102620704e-01, 
   3.590391604102620704e-01,  3.590391604102620704e-01,  3.590391604102620704e-01,  3.590391604102620704e-01,  3.590391604102620704e-01, 
   3.590391604102620704e-01,  3.590391604102620704e-01,  3.590391604102620704e-01};

static const double unitSphereLebedevCrd1[150] = {
   1.000000000000000000e+00,  0.000000000000000000e+00,  0.000000000000000000e+00, -1.000000000000000000e+00,  0.000000000000000000e+00, 
   0.000000000000000000e+00,  0.000000000000000000e+00,  1.000000000000000000e+00,  0.000000000000000000e+00,  0.000000000000000000e+00, 
  -1.000000000000000000e+00,  0.000000000000000000e+00,  0.000000000000000000e+00,  0.000000000000000000e+00,  1.000000000000000000e+00, 
   0.000000000000000000e+00,  0.000000000000000000e+00, -1.000000000000000000e+00,  0.000000000000000000e+00,  7.071067811865474617e-01, 
   7.071067811865474617e-01,  0.000000000000000000e+00,  7.071067811865474617e-01, -7.071067811865474617e-01,  0.000000000000000000e+00, 
  -7.071067811865474617e-01,  7.071067811865474617e-01,  0.000000000000000000e+00, -7.071067811865474617e-01, -7.071067811865474617e-01, 
   7.071067811865474617e-01,  0.000000000000000000e+00,  7.071067811865474617e-01, -7.071067811865474617e-01,  0.000000000000000000e+00, 
   7.071067811865474617e-01,  7.071067811865474617e-01,  0.000000000000000000e+00, -7.071067811865474617e-01, -7.071067811865474617e-01, 
   0.000000000000000000e+00, -7.071067811865474617e-01,  7.071067811865474617e-01,  7.071067811865474617e-01,  0.000000000000000000e+00, 
   7.071067811865474617e-01, -7.071067811865474617e-01,  0.000000000000000000e+00, -7.071067811865474617e-01,  7.071067811865474617e-01, 
   0.000000000000000000e+00, -7.071067811865474617e-01, -7.071067811865474617e-01,  0.000000000000000000e+00,  5.773502691896258421e-01, 
   5.773502691896258421e-01,  5.773502691896258421e-01,  5.773502691896258421e-01,  5.773502691896258421e-01, -5.773502691896258421e-01, 
   5.773502691896258421e-01, -5.773502691896258421e-01,  5.773502691896258421e-01,  5.773502691896258421e-01, -5.773502691896258421e-01, 
  -5.773502691896258421e-01, -5.773502691896258421e-01,  5.773502691896258421e-01,  5.773502691896258421e-01, -5.773502691896258421e-01, 
   5.773502691896258421e-01, -5.773502691896258421e-01, -5.773502691896258421e-01, -5.773502691896258421e-01,  5.773502691896258421e-01, 
  -5.773502691896258421e-01, -5.773502691896258421e-01, -5.773502691896258421e-01,  3.015113445777635737e-01,  3.015113445777635737e-01, 
   9.045340337332908875e-01,  3.015113445777635737e-01,  3.015113445777635737e-01, -9.045340337332908875e-01,  3.015113445777635737e-01, 
  -3.015113445777635737e-01,  9.045340337332908875e-01,  3.015113445777635737e-01, -3.015113445777635737e-01, -9.045340337332908875e-01, 
  -3.015113445777635737e-01,  3.015113445777635737e-01,  9.045340337332908875e-01, -3.015113445777635737e-01,  3.015113445777635737e-01, 
  -9.045340337332908875e-01, -3.015113445777635737e-01, -3.015113445777635737e-01,  9.045340337332908875e-01, -3.015113445777635737e-01, 
  -3.015113445777635737e-01, -9.045340337332908875e-01,  9.045340337332908875e-01,  3.015113445777635737e-01,  3.015113445777635737e-01, 
  -9.045340337332908875e-01,  3.015113445777635737e-01,  3.015113445777635737e-01,  9.045340337332908875e-01,  3.015113445777635737e-01, 
  -3.015113445777635737e-01, -9.045340337332908875e-01,  3.015113445777635737e-01, -3.015113445777635737e-01,  9.045340337332908875e-01, 
  -3.015113445777635737e-01,  3.015113445777635737e-01, -9.045340337332908875e-01, -3.015113445777635737e-01,  3.015113445777635737e-01, 
   9.045340337332908875e-01, -3.015113445777635737e-01, -3.015113445777635737e-01, -9.045340337332908875e-01, -3.015113445777635737e-01, 
  -3.015113445777635737e-01,  3.015113445777635737e-01,  9.045340337332908875e-01,  3.015113445777635737e-01,  3.015113445777635737e-01, 
  -9.045340337332908875e-01,  3.015113445777635737e-01, -3.015113445777635737e-01,  9.045340337332908875e-01,  3.015113445777635737e-01, 
  -3.015113445777635737e-01, -9.045340337332908875e-01,  3.015113445777635737e-01,  3.015113445777635737e-01,  9.045340337332908875e-01, 
  -3.015113445777635737e-01,  3.015113445777635737e-01, -9.045340337332908875e-01, -3.015113445777635737e-01, -3.015113445777635737e-01, 
   9.045340337332908875e-01, -3.015113445777635737e-01, -3.015113445777635737e-01, -9.045340337332908875e-01, -3.015113445777635737e-01};
static const double unitSphereLebedevWeight1[50] = {
   1.595729601823386856e-01,  1.595729601823386856e-01,  1.595729601823386856e-01,  1.595729601823386856e-01,  1.595729601823386856e-01, 
   1.595729601823386856e-01,  2.836852625463799349e-01,  2.836852625463799349e-01,  2.836852625463799349e-01,  2.836852625463799349e-01, 
   2.836852625463799349e-01,  2.836852625463799349e-01,  2.836852625463799349e-01,  2.836852625463799349e-01,  2.836852625463799349e-01, 
   2.836852625463799349e-01,  2.836852625463799349e-01,  2.836852625463799349e-01,  2.650718801466387942e-01,  2.650718801466387942e-01, 
   2.650718801466387942e-01,  2.650718801466387942e-01,  2.650718801466387942e-01,  2.650718801466387942e-01,  2.650718801466387942e-01, 
   2.650718801466387942e-01,  2.535056108973112732e-01,  2.535056108973112732e-01,  2.535056108973112732e-01,  2.535056108973112732e-01, 
   2.535056108973112732e-01,  2.535056108973112732e-01,  2.535056108973112732e-01,  2.535056108973112732e-01,  2.535056108973112732e-01, 
   2.535056108973112732e-01,  2.535056108973112732e-01,  2.535056108973112732e-01,  2.535056108973112732e-01,  2.535056108973112732e-01, 
   2.535056108973112732e-01,  2.535056108973112732e-01,  2.535056108973112732e-01,  2.535056108973112732e-01,  2.535056108973112732e-01, 
   2.535056108973112732e-01,  2.535056108973112732e-01,  2.535056108973112732e-01,  2.535056108973112732e-01,  2.535056108973112732e-01};

static const double unitSphereLebedevCrd2[330] = {
   1.000000000000000000e+00,  0.000000000000000000e+00,  0.000000000000000000e+00, -1.000000000000000000e+00,  0.000000000000000000e+00, 
   0.000000000000000000e+00,  0.000000000000000000e+00,  1.000000000000000000e+00,  0.000000000000000000e+00,  0.000000000000000000e+00, 
  -1.000000000000000000e+00,  0.000000000000000000e+00,  0.000000000000000000e+00,  0.000000000000000000e+00,  1.000000000000000000e+00, 
   0.000000000000000000e+00,  0.000000000000000000e+00, -1.000000000000000000e+00,  5.773502691896258421e-01,  5.773502691896258421e-01, 
   5.773502691896258421e-01,  5.773502691896258421e-01,  5.773502691896258421e-01, -5.773502691896258421e-01,  5.773502691896258421e-01, 
  -5.773502691896258421e-01,  5.773502691896258421e-01,  5.773502691896258421e-01, -5.773502691896258421e-01, -5.773502691896258421e-01, 
  -5.773502691896258421e-01,  5.773502691896258421e-01,  5.773502691896258421e-01, -5.773502691896258421e-01,  5.773502691896258421e-01, 
  -5.773502691896258421e-01, -5.773502691896258421e-01, -5.773502691896258421e-01,  5.773502691896258421e-01, -5.773502691896258421e-01, 
  -5.773502691896258421e-01, -5.773502691896258421e-01,  1.851156353447363234e-01,  1.851156353447363234e-01,  9.651240350865940565e-01, 
   1.851156353447363234e-01,  1.851156353447363234e-01, -9.651240350865940565e-01,  1.851156353447363234e-01, -1.851156353447363234e-01, 
   9.651240350865940565e-01,  1.851156353447363234e-01, -1.851156353447363234e-01, -9.651240350865940565e-01, -1.851156353447363234e-01, 
   1.851156353447363234e-01,  9.651240350865940565e-01, -1.851156353447363234e-01,  1.851156353447363234e-01, -9.651240350865940565e-01, 
  -1.851156353447363234e-01, -1.851156353447363234e-01,  9.651240350865940565e-01, -1.851156353447363234e-01, -1.851156353447363234e-01, 
  -9.651240350865940565e-01,  9.651240350865940565e-01,  1.851156353447363234e-01,  1.851156353447363234e-01, -9.651240350865940565e-01, 
   1.851156353447363234e-01,  1.851156353447363234e-01,  9.651240350865940565e-01,  1.851156353447363234e-01, -1.851156353447363234e-01, 
  -9.651240350865940565e-01,  1.851156353447363234e-01, -1.851156353447363234e-01,  9.651240350865940565e-01, -1.851156353447363234e-01, 
   1.851156353447363234e-01, -9.651240350865940565e-01, -1.851156353447363234e-01,  1.851156353447363234e-01,  9.651240350865940565e-01, 
  -1.851156353447363234e-01, -1.851156353447363234e-01, -9.651240350865940565e-01, -1.851156353447363234e-01, -1.851156353447363234e-01, 
   1.851156353447363234e-01,  9.651240350865940565e-01,  1.851156353447363234e-01,  1.851156353447363234e-01, -9.651240350865940565e-01, 
   1.851156353447363234e-01, -1.851156353447363234e-01,  9.651240350865940565e-01,  1.851156353447363234e-01, -1.851156353447363234e-01, 
  -9.651240350865940565e-01,  1.851156353447363234e-01,  1.851156353447363234e-01,  9.651240350865940565e-01, -1.851156353447363234e-01, 
   1.851156353447363234e-01, -9.651240350865940565e-01, -1.851156353447363234e-01, -1.851156353447363234e-01,  9.651240350865940565e-01, 
  -1.851156353447363234e-01, -1.851156353447363234e-01, -9.651240350865940565e-01, -1.851156353447363234e-01,  3.956894730559418760e-01, 
   3.956894730559418760e-01,  8.287699812525922693e-01,  3.956894730559418760e-01,  3.956894730559418760e-01, -8.287699812525922693e-01, 
   3.956894730559418760e-01, -3.956894730559418760e-01,  8.287699812525922693e-01,  3.956894730559418760e-01, -3.956894730559418760e-01, 
  -8.287699812525922693e-01, -3.956894730559418760e-01,  3.956894730559418760e-01,  8.287699812525922693e-01, -3.956894730559418760e-01, 
   3.956894730559418760e-01, -8.287699812525922693e-01, -3.956894730559418760e-01, -3.956894730559418760e-01,  8.287699812525922693e-01, 
  -3.956894730559418760e-01, -3.956894730559418760e-01, -8.287699812525922693e-01,  8.287699812525922693e-01,  3.956894730559418760e-01, 
   3.956894730559418760e-01, -8.287699812525922693e-01,  3.956894730559418760e-01,  3.956894730559418760e-01,  8.287699812525922693e-01, 
   3.956894730559418760e-01, -3.956894730559418760e-01, -8.287699812525922693e-01,  3.956894730559418760e-01, -3.956894730559418760e-01, 
   8.287699812525922693e-01, -3.956894730559418760e-01,  3.956894730559418760e-01, -8.287699812525922693e-01, -3.956894730559418760e-01, 
   3.956894730559418760e-01,  8.287699812525922693e-01, -3.956894730559418760e-01, -3.956894730559418760e-01, -8.287699812525922693e-01, 
  -3.956894730559418760e-01, -3.956894730559418760e-01,  3.956894730559418760e-01,  8.287699812525922693e-01,  3.956894730559418760e-01, 
   3.956894730559418760e-01, -8.287699812525922693e-01,  3.956894730559418760e-01, -3.956894730559418760e-01,  8.287699812525922693e-01, 
   3.956894730559418760e-01, -3.956894730559418760e-01, -8.287699812525922693e-01,  3.956894730559418760e-01,  3.956894730559418760e-01, 
   8.287699812525922693e-01, -3.956894730559418760e-01,  3.956894730559418760e-01, -8.287699812525922693e-01, -3.956894730559418760e-01, 
  -3.956894730559418760e-01,  8.287699812525922693e-01, -3.956894730559418760e-01, -3.956894730559418760e-01, -8.287699812525922693e-01, 
  -3.956894730559418760e-01,  6.904210483822922351e-01,  6.904210483822922351e-01,  2.159572918458484425e-01,  6.904210483822922351e-01, 
   6.904210483822922351e-01, -2.159572918458484425e-01,  6.904210483822922351e-01, -6.904210483822922351e-01,  2.159572918458484425e-01, 
   6.904210483822922351e-01, -6.904210483822922351e-01, -2.159572918458484425e-01, -6.904210483822922351e-01,  6.904210483822922351e-01, 
   2.159572918458484425e-01, -6.904210483822922351e-01,  6.904210483822922351e-01, -2.159572918458484425e-01, -6.904210483822922351e-01, 
  -6.904210483822922351e-01,  2.159572918458484425e-01, -6.904210483822922351e-01, -6.904210483822922351e-01, -2.159572918458484425e-01, 
   2.159572918458484425e-01,  6.904210483822922351e-01,  6.904210483822922351e-01, -2.159572918458484425e-01,  6.904210483822922351e-01, 
   6.904210483822922351e-01,  2.159572918458484425e-01,  6.904210483822922351e-01, -6.904210483822922351e-01, -2.159572918458484425e-01, 
   6.904210483822922351e-01, -6.904210483822922351e-01,  2.159572918458484425e-01, -6.904210483822922351e-01,  6.904210483822922351e-01, 
  -2.159572918458484425e-01, -6.904210483822922351e-01,  6.904210483822922351e-01,  2.159572918458484425e-01, -6.904210483822922351e-01, 
  -6.904210483822922351e-01, -2.159572918458484425e-01, -6.904210483822922351e-01, -6.904210483822922351e-01,  6.904210483822922351e-01, 
   2.159572918458484425e-01,  6.904210483822922351e-01,  6.904210483822922351e-01, -2.159572918458484425e-01,  6.904210483822922351e-01, 
  -6.904210483822922351e-01,  2.159572918458484425e-01,  6.904210483822922351e-01, -6.904210483822922351e-01, -2.159572918458484425e-01, 
   6.904210483822922351e-01,  6.904210483822922351e-01,  2.159572918458484425e-01, -6.904210483822922351e-01,  6.904210483822922351e-01, 
  -2.159572918458484425e-01, -6.904210483822922351e-01, -6.904210483822922351e-01,  2.159572918458484425e-01, -6.904210483822922351e-01, 
  -6.904210483822922351e-01, -2.159572918458484425e-01, -6.904210483822922351e-01,  0.000000000000000000e+00,  8.781589106040661452e-01, 
   4.783690288121501544e-01,  0.000000000000000000e+00,  8.781589106040661452e-01, -4.783690288121501544e-01,  0.000000000000000000e+00, 
  -8.781589106040661452e-01,  4.783690288121501544e-01,  0.000000000000000000e+00, -8.781589106040661452e-01, -4.783690288121501544e-01, 
   4.783690288121501544e-01,  0.000000000000000000e+00,  8.781589106040661452e-01, -4.783690288121501544e-01,  0.000000000000000000e+00, 
   8.781589106040661452e-01,  4.783690288121501544e-01,  0.000000000000000000e+00, -8.781589106040661452e-01, -4.783690288121501544e-01, 
   0.000000000000000000e+00, -8.781589106040661452e-01,  8.781589106040661452e-01,  4.783690288121501544e-01,  0.000000000000000000e+00, 
   8.781589106040661452e-01, -4.783690288121501544e-01,  0.000000000000000000e+00, -8.781589106040661452e-01,  4.783690288121501544e-01, 
   0.000000000000000000e+00, -8.781589106040661452e-01, -4.783690288121501544e-01,  0.000000000000000000e+00,  0.000000000000000000e+00, 
   4.783690288121501544e-01,  8.781589106040661452e-01,  0.000000000000000000e+00,  4.783690288121501544e-01, -8.781589106040661452e-01, 
   0.000000000000000000e+00, -4.783690288121501544e-01,  8.781589106040661452e-01,  0.000000000000000000e+00, -4.783690288121501544e-01, 
  -8.781589106040661452e-01,  8.781589106040661452e-01,  0.000000000000000000e+00,  4.783690288121501544e-01, -8.781589106040661452e-01, 
   0.000000000000000000e+00,  4.783690288121501544e-01,  8.781589106040661452e-01,  0.000000000000000000e+00, -4.783690288121501544e-01, 
  -8.781589106040661452e-01,  0.000000000000000000e+00, -4.783690288121501544e-01,  4.783690288121501544e-01,  8.781589106040661452e-01, 
   0.000000000000000000e+00,  4.783690288121501544e-01, -8.781589106040661452e-01,  0.000000000000000000e+00, -4.783690288121501544e-01, 
   8.781589106040661452e-01,  0.000000000000000000e+00, -4.783690288121501544e-01, -8.781589106040661452e-01,  0.000000000000000000e+00};
static const double unitSphereLebedevWeight2[110] = {
   4.810746585139667048e-02,  4.810746585139667048e-02,  4.810746585139667048e-02,  4.810746585139667048e-02,  4.810746585139667048e-02, 
   4.810746585139667048e-02,  1.230717352816703275e-01,  1.230717352816703275e-01,  1.230717352816703275e-01,  1.230717352816703275e-01, 
   1.230717352816703275e-01,  1.230717352816703275e-01,  1.230717352816703275e-01,  1.230717352816703275e-01,  1.031917340883304057e-01, 
   1.031917340883304057e-01,  1.031917340883304057e-01,  1.031917340883304057e-01,  1.031917340883304057e-01,  1.031917340883304057e-01, 
   1.031917340883304057e-01,  1.031917340883304057e-01,  1.031917340883304057e-01,  1.031917340883304057e-01,  1.031917340883304057e-01, 
   1.031917340883304057e-01,  1.031917340883304057e-01,  1.031917340883304057e-01,  1.031917340883304057e-01,  1.031917340883304057e-01, 
   1.031917340883304057e-01,  1.031917340883304057e-01,  1.031917340883304057e-01,  1.031917340883304057e-01,  1.031917340883304057e-01, 
   1.031917340883304057e-01,  1.031917340883304057e-01,  1.031917340883304057e-01,  1.205802490285278888e-01,  1.205802490285278888e-01, 
   1.205802490285278888e-01,  1.205802490285278888e-01,  1.205802490285278888e-01,  1.205802490285278888e-01,  1.205802490285278888e-01, 
   1.205802490285278888e-01,  1.205802490285278888e-01,  1.205802490285278888e-01,  1.205802490285278888e-01,  1.205802490285278888e-01, 
   1.205802490285278888e-01,  1.205802490285278888e-01,  1.205802490285278888e-01,  1.205802490285278888e-01,  1.205802490285278888e-01, 
   1.205802490285278888e-01,  1.205802490285278888e-01,  1.205802490285278888e-01,  1.205802490285278888e-01,  1.205802490285278888e-01, 
   1.205802490285278888e-01,  1.205802490285278888e-01,  1.249450968725133032e-01,  1.249450968725133032e-01,  1.249450968725133032e-01, 
   1.249450968725133032e-01,  1.249450968725133032e-01,  1.249450968725133032e-01,  1.249450968725133032e-01,  1.249450968725133032e-01, 
   1.249450968725133032e-01,  1.249450968725133032e-01,  1.249450968725133032e-01,  1.249450968725133032e-01,  1.249450968725133032e-01, 
   1.249450968725133032e-01,  1.249450968725133032e-01,  1.249450968725133032e-01,  1.249450968725133032e-01,  1.249450968725133032e-01, 
   1.249450968725133032e-01,  1.249450968725133032e-01,  1.249450968725133032e-01,  1.249450968725133032e-01,  1.249450968725133032e-01, 
   1.249450968725133032e-01,  1.218309173855213756e-01,  1.218309173855213756e-01,  1.218309173855213756e-01,  1.218309173855213756e-01, 
   1.218309173855213756e-01,  1.218309173855213756e-01,  1.218309173855213756e-01,  1.218309173855213756e-01,  1.218309173855213756e-01, 
   1.218309173855213756e-01,  1.218309173855213756e-01,  1.218309173855213756e-01,  1.218309173855213756e-01,  1.218309173855213756e-01, 
   1.218309173855213756e-01,  1.218309173855213756e-01,  1.218309173855213756e-01,  1.218309173855213756e-01,  1.218309173855213756e-01, 
   1.218309173855213756e-01,  1.218309173855213756e-01,  1.218309173855213756e-01,  1.218309173855213756e-01,  1.218309173855213756e-01};

static const double unitSphereLebedevCrd3[582] = {
   1.000000000000000000e+00,  0.000000000000000000e+00,  0.000000000000000000e+00, -1.000000000000000000e+00,  0.000000000000000000e+00, 
   0.000000000000000000e+00,  0.000000000000000000e+00,  1.000000000000000000e+00,  0.000000000000000000e+00,  0.000000000000000000e+00, 
  -1.000000000000000000e+00,  0.000000000000000000e+00,  0.000000000000000000e+00,  0.000000000000000000e+00,  1.000000000000000000e+00, 
   0.000000000000000000e+00,  0.000000000000000000e+00, -1.000000000000000000e+00,  0.000000000000000000e+00,  7.071067811865474617e-01, 
   7.071067811865474617e-01,  0.000000000000000000e+00,  7.071067811865474617e-01, -7.071067811865474617e-01,  0.000000000000000000e+00, 
  -7.071067811865474617e-01,  7.071067811865474617e-01,  0.000000000000000000e+00, -7.071067811865474617e-01, -7.071067811865474617e-01, 
   7.071067811865474617e-01,  0.000000000000000000e+00,  7.071067811865474617e-01, -7.071067811865474617e-01,  0.000000000000000000e+00, 
   7.071067811865474617e-01,  7.071067811865474617e-01,  0.000000000000000000e+00, -7.071067811865474617e-01, -7.071067811865474617e-01, 
   0.000000000000000000e+00, -7.071067811865474617e-01,  7.071067811865474617e-01,  7.071067811865474617e-01,  0.000000000000000000e+00, 
   7.071067811865474617e-01, -7.071067811865474617e-01,  0.000000000000000000e+00, -7.071067811865474617e-01,  7.071067811865474617e-01, 
   0.000000000000000000e+00, -7.071067811865474617e-01, -7.071067811865474617e-01,  0.000000000000000000e+00,  5.773502691896258421e-01, 
   5.773502691896258421e-01,  5.773502691896258421e-01,  5.773502691896258421e-01,  5.773502691896258421e-01, -5.773502691896258421e-01, 
   5.773502691896258421e-01, -5.773502691896258421e-01,  5.773502691896258421e-01,  5.773502691896258421e-01, -5.773502691896258421e-01, 
  -5.773502691896258421e-01, -5.773502691896258421e-01,  5.773502691896258421e-01,  5.773502691896258421e-01, -5.773502691896258421e-01, 
   5.773502691896258421e-01, -5.773502691896258421e-01, -5.773502691896258421e-01, -5.773502691896258421e-01,  5.773502691896258421e-01, 
  -5.773502691896258421e-01, -5.773502691896258421e-01, -5.773502691896258421e-01,  4.446933178717437096e-01,  4.446933178717437096e-01, 
   7.774932193147671144e-01,  4.446933178717437096e-01,  4.446933178717437096e-01, -7.774932193147671144e-01,  4.446933178717437096e-01, 
  -4.446933178717437096e-01,  7.774932193147671144e-01,  4.446933178717437096e-01, -4.446933178717437096e-01, -7.774932193147671144e-01, 
  -4.446933178717437096e-01,  4.446933178717437096e-01,  7.774932193147671144e-01, -4.446933178717437096e-01,  4.446933178717437096e-01, 
  -7.774932193147671144e-01, -4.446933178717437096e-01, -4.446933178717437096e-01,  7.774932193147671144e-01, -4.446933178717437096e-01, 
  -4.446933178717437096e-01, -7.774932193147671144e-01,  7.774932193147671144e-01,  4.446933178717437096e-01,  4.446933178717437096e-01, 
  -7.774932193147671144e-01,  4.446933178717437096e-01,  4.446933178717437096e-01,  7.774932193147671144e-01,  4.446933178717437096e-01, 
  -4.446933178717437096e-01, -7.774932193147671144e-01,  4.446933178717437096e-01, -4.446933178717437096e-01,  7.774932193147671144e-01, 
  -4.446933178717437096e-01,  4.446933178717437096e-01, -7.774932193147671144e-01, -4.446933178717437096e-01,  4.446933178717437096e-01, 
   7.774932193147671144e-01, -4.446933178717437096e-01, -4.446933178717437096e-01, -7.774932193147671144e-01, -4.446933178717437096e-01, 
  -4.446933178717437096e-01,  4.446933178717437096e-01,  7.774932193147671144e-01,  4.446933178717437096e-01,  4.446933178717437096e-01, 
  -7.774932193147671144e-01,  4.446933178717437096e-01, -4.446933178717437096e-01,  7.774932193147671144e-01,  4.446933178717437096e-01, 
  -4.446933178717437096e-01, -7.774932193147671144e-01,  4.446933178717437096e-01,  4.446933178717437096e-01,  7.774932193147671144e-01, 
  -4.446933178717437096e-01,  4.446933178717437096e-01, -7.774932193147671144e-01, -4.446933178717437096e-01, -4.446933178717437096e-01, 
   7.774932193147671144e-01, -4.446933178717437096e-01, -4.446933178717437096e-01, -7.774932193147671144e-01, -4.446933178717437096e-01, 
   2.892465627575437903e-01,  2.892465627575437903e-01,  9.125090968674737235e-01,  2.892465627575437903e-01,  2.892465627575437903e-01, 
  -9.125090968674737235e-01,  2.892465627575437903e-01, -2.892465627575437903e-01,  9.125090968674737235e-01,  2.892465627575437903e-01, 
  -2.892465627575437903e-01, -9.125090968674737235e-01, -2.892465627575437903e-01,  2.892465627575437903e-01,  9.125090968674737235e-01, 
  -2.892465627575437903e-01,  2.892465627575437903e-01, -9.125090968674737235e-01, -2.892465627575437903e-01, -2.892465627575437903e-01, 
   9.125090968674737235e-01, -2.892465627575437903e-01, -2.892465627575437903e-01, -9.125090968674737235e-01,  9.125090968674737235e-01, 
   2.892465627575437903e-01,  2.892465627575437903e-01, -9.125090968674737235e-01,  2.892465627575437903e-01,  2.892465627575437903e-01, 
   9.125090968674737235e-01,  2.892465627575437903e-01, -2.892465627575437903e-01, -9.125090968674737235e-01,  2.892465627575437903e-01, 
  -2.892465627575437903e-01,  9.125090968674737235e-01, -2.892465627575437903e-01,  2.892465627575437903e-01, -9.125090968674737235e-01, 
  -2.892465627575437903e-01,  2.892465627575437903e-01,  9.125090968674737235e-01, -2.892465627575437903e-01, -2.892465627575437903e-01, 
  -9.125090968674737235e-01, -2.892465627575437903e-01, -2.892465627575437903e-01,  2.892465627575437903e-01,  9.125090968674737235e-01, 
   2.892465627575437903e-01,  2.892465627575437903e-01, -9.125090968674737235e-01,  2.892465627575437903e-01, -2.892465627575437903e-01, 
   9.125090968674737235e-01,  2.892465627575437903e-01, -2.892465627575437903e-01, -9.125090968674737235e-01,  2.892465627575437903e-01, 
   2.892465627575437903e-01,  9.125090968674737235e-01, -2.892465627575437903e-01,  2.892465627575437903e-01, -9.125090968674737235e-01, 
  -2.892465627575437903e-01, -2.892465627575437903e-01,  9.125090968674737235e-01, -2.892465627575437903e-01, -2.892465627575437903e-01, 
  -9.125090968674737235e-01, -2.892465627575437903e-01,  6.712973442695225890e-01,  6.712973442695225890e-01,  3.141969941825862866e-01, 
   6.712973442695225890e-01,  6.712973442695225890e-01, -3.141969941825862866e-01,  6.712973442695225890e-01, -6.712973442695225890e-01, 
   3.141969941825862866e-01,  6.712973442695225890e-01, -6.712973442695225890e-01, -3.141969941825862866e-01, -6.712973442695225890e-01, 
   6.712973442695225890e-01,  3.141969941825862866e-01, -6.712973442695225890e-01,  6.712973442695225890e-01, -3.141969941825862866e-01, 
  -6.712973442695225890e-01, -6.712973442695225890e-01,  3.141969941825862866e-01, -6.712973442695225890e-01, -6.712973442695225890e-01, 
  -3.141969941825862866e-01,  3.141969941825862866e-01,  6.712973442695225890e-01,  6.712973442695225890e-01, -3.141969941825862866e-01, 
   6.712973442695225890e-01,  6.712973442695225890e-01,  3.141969941825862866e-01,  6.712973442695225890e-01, -6.712973442695225890e-01, 
  -3.141969941825862866e-01,  6.712973442695225890e-01, -6.712973442695225890e-01,  3.141969941825862866e-01, -6.712973442695225890e-01, 
   6.712973442695225890e-01, -3.141969941825862866e-01, -6.712973442695225890e-01,  6.712973442695225890e-01,  3.141969941825862866e-01, 
  -6.712973442695225890e-01, -6.712973442695225890e-01, -3.141969941825862866e-01, -6.712973442695225890e-01, -6.712973442695225890e-01, 
   6.712973442695225890e-01,  3.141969941825862866e-01,  6.712973442695225890e-01,  6.712973442695225890e-01, -3.141969941825862866e-01, 
   6.712973442695225890e-01, -6.712973442695225890e-01,  3.141969941825862866e-01,  6.712973442695225890e-01, -6.712973442695225890e-01, 
  -3.141969941825862866e-01,  6.712973442695225890e-01,  6.712973442695225890e-01,  3.141969941825862866e-01, -6.712973442695225890e-01, 
   6.712973442695225890e-01, -3.141969941825862866e-01, -6.712973442695225890e-01, -6.712973442695225890e-01,  3.141969941825862866e-01, 
  -6.712973442695225890e-01, -6.712973442695225890e-01, -3.141969941825862866e-01, -6.712973442695225890e-01,  1.299335447650070141e-01, 
   1.299335447650070141e-01,  9.829723027072532204e-01,  1.299335447650070141e-01,  1.299335447650070141e-01, -9.829723027072532204e-01, 
   1.299335447650070141e-01, -1.299335447650070141e-01,  9.829723027072532204e-01,  1.299335447650070141e-01, -1.299335447650070141e-01, 
  -9.829723027072532204e-01, -1.299335447650070141e-01,  1.299335447650070141e-01,  9.829723027072532204e-01, -1.299335447650070141e-01, 
   1.299335447650070141e-01, -9.829723027072532204e-01, -1.299335447650070141e-01, -1.299335447650070141e-01,  9.829723027072532204e-01, 
  -1.299335447650070141e-01, -1.299335447650070141e-01, -9.829723027072532204e-01,  9.829723027072532204e-01,  1.299335447650070141e-01, 
   1.299335447650070141e-01, -9.829723027072532204e-01,  1.299335447650070141e-01,  1.299335447650070141e-01,  9.829723027072532204e-01, 
   1.299335447650070141e-01, -1.299335447650070141e-01, -9.829723027072532204e-01,  1.299335447650070141e-01, -1.299335447650070141e-01, 
   9.829723027072532204e-01, -1.299335447650070141e-01,  1.299335447650070141e-01, -9.829723027072532204e-01, -1.299335447650070141e-01, 
   1.299335447650070141e-01,  9.829723027072532204e-01, -1.299335447650070141e-01, -1.299335447650070141e-01, -9.829723027072532204e-01, 
  -1.299335447650070141e-01, -1.299335447650070141e-01,  1.299335447650070141e-01,  9.829723027072532204e-01,  1.299335447650070141e-01, 
   1.299335447650070141e-01, -9.829723027072532204e-01,  1.299335447650070141e-01, -1.299335447650070141e-01,  9.829723027072532204e-01, 
   1.299335447650070141e-01, -1.299335447650070141e-01, -9.829723027072532204e-01,  1.299335447650070141e-01,  1.299335447650070141e-01, 
   9.829723027072532204e-01, -1.299335447650070141e-01,  1.299335447650070141e-01, -9.829723027072532204e-01, -1.299335447650070141e-01, 
  -1.299335447650070141e-01,  9.829723027072532204e-01, -1.299335447650070141e-01, -1.299335447650070141e-01, -9.829723027072532204e-01, 
  -1.299335447650070141e-01,  0.000000000000000000e+00,  9.383192181375915597e-01,  3.457702197611280948e-01,  0.000000000000000000e+00, 
   9.383192181375915597e-01, -3.457702197611280948e-01,  0.000000000000000000e+00, -9.383192181375915597e-01,  3.457702197611280948e-01, 
   0.000000000000000000e+00, -9.383192181375915597e-01, -3.457702197611280948e-01,  3.457702197611280948e-01,  0.000000000000000000e+00, 
   9.383192181375915597e-01, -3.457702197611280948e-01,  0.000000000000000000e+00,  9.383192181375915597e-01,  3.457702197611280948e-01, 
   0.000000000000000000e+00, -9.383192181375915597e-01, -3.457702197611280948e-01,  0.000000000000000000e+00, -9.383192181375915597e-01, 
   9.383192181375915597e-01,  3.457702197611280948e-01,  0.000000000000000000e+00,  9.383192181375915597e-01, -3.457702197611280948e-01, 
   0.000000000000000000e+00, -9.383192181375915597e-01,  3.457702197611280948e-01,  0.000000000000000000e+00, -9.383192181375915597e-01, 
  -3.457702197611280948e-01,  0.000000000000000000e+00,  0.000000000000000000e+00,  3.457702197611280948e-01,  9.383192181375915597e-01, 
   0.000000000000000000e+00,  3.457702197611280948e-01, -9.383192181375915597e-01,  0.000000000000000000e+00, -3.457702197611280948e-01, 
   9.383192181375915597e-01,  0.000000000000000000e+00, -3.457702197611280948e-01, -9.383192181375915597e-01,  9.383192181375915597e-01, 
   0.000000000000000000e+00,  3.457702197611280948e-01, -9.383192181375915597e-01,  0.000000000000000000e+00,  3.457702197611280948e-01, 
   9.383192181375915597e-01,  0.000000000000000000e+00, -3.457702197611280948e-01, -9.383192181375915597e-01,  0.000000000000000000e+00, 
  -3.457702197611280948e-01,  3.457702197611280948e-01,  9.383192181375915597e-01,  0.000000000000000000e+00,  3.457702197611280948e-01, 
  -9.383192181375915597e-01,  0.000000000000000000e+00, -3.457702197611280948e-01,  9.383192181375915597e-01,  0.000000000000000000e+00, 
  -3.457702197611280948e-01, -9.383192181375915597e-01,  0.000000000000000000e+00,  8.360360154824588719e-01,  1.590417105383530039e-01, 
   5.251185724436420177e-01,  8.360360154824588719e-01,  5.251185724436420177e-01,  1.590417105383530039e-01,  8.360360154824588719e-01, 
   1.590417105383530039e-01, -5.251185724436420177e-01,  8.360360154824588719e-01,  5.251185724436420177e-01, -1.590417105383530039e-01, 
   8.360360154824588719e-01, -1.590417105383530039e-01,  5.251185724436420177e-01,  8.360360154824588719e-01, -5.251185724436420177e-01, 
   1.590417105383530039e-01,  8.360360154824588719e-01, -1.590417105383530039e-01, -5.251185724436420177e-01,  8.360360154824588719e-01, 
  -5.251185724436420177e-01, -1.590417105383530039e-01, -8.360360154824588719e-01,  1.590417105383530039e-01,  5.251185724436420177e-01, 
  -8.360360154824588719e-01,  5.251185724436420177e-01,  1.590417105383530039e-01, -8.360360154824588719e-01,  1.590417105383530039e-01, 
  -5.251185724436420177e-01, -8.360360154824588719e-01,  5.251185724436420177e-01, -1.590417105383530039e-01, -8.360360154824588719e-01, 
  -1.590417105383530039e-01,  5.251185724436420177e-01, -8.360360154824588719e-01, -5.251185724436420177e-01,  1.590417105383530039e-01, 
  -8.360360154824588719e-01, -1.590417105383530039e-01, -5.251185724436420177e-01, -8.360360154824588719e-01, -5.251185724436420177e-01, 
  -1.590417105383530039e-01,  5.251185724436420177e-01,  8.360360154824588719e-01,  1.590417105383530039e-01,  1.590417105383530039e-01, 
   8.360360154824588719e-01,  5.251185724436420177e-01, -5.251185724436420177e-01,  8.360360154824588719e-01,  1.590417105383530039e-01, 
  -1.590417105383530039e-01,  8.360360154824588719e-01,  5.251185724436420177e-01,  5.251185724436420177e-01,  8.360360154824588719e-01, 
  -1.590417105383530039e-01,  1.590417105383530039e-01,  8.360360154824588719e-01, -5.251185724436420177e-01, -5.251185724436420177e-01, 
   8.360360154824588719e-01, -1.590417105383530039e-01, -1.590417105383530039e-01,  8.360360154824588719e-01, -5.251185724436420177e-01, 
   5.251185724436420177e-01, -8.360360154824588719e-01,  1.590417105383530039e-01,  1.590417105383530039e-01, -8.360360154824588719e-01, 
   5.251185724436420177e-01, -5.251185724436420177e-01, -8.360360154824588719e-01,  1.590417105383530039e-01, -1.590417105383530039e-01, 
  -8.360360154824588719e-01,  5.251185724436420177e-01,  5.251185724436420177e-01, -8.360360154824588719e-01, -1.590417105383530039e-01, 
   1.590417105383530039e-01, -8.360360154824588719e-01, -5.251185724436420177e-01, -5.251185724436420177e-01, -8.360360154824588719e-01, 
  -1.590417105383530039e-01, -1.590417105383530039e-01, -8.360360154824588719e-01, -5.251185724436420177e-01,  1.590417105383530039e-01, 
   5.251185724436420177e-01,  8.360360154824588719e-01,  5.251185724436420177e-01,  1.590417105383530039e-01,  8.360360154824588719e-01, 
   1.590417105383530039e-01, -5.251185724436420177e-01,  8.360360154824588719e-01,  5.251185724436420177e-01, -1.590417105383530039e-01, 
   8.360360154824588719e-01, -1.590417105383530039e-01,  5.251185724436420177e-01,  8.360360154824588719e-01, -5.251185724436420177e-01, 
   1.590417105383530039e-01,  8.360360154824588719e-01, -1.590417105383530039e-01, -5.251185724436420177e-01,  8.360360154824588719e-01, 
  -5.251185724436420177e-01, -1.590417105383530039e-01,  8.360360154824588719e-01,  1.590417105383530039e-01,  5.251185724436420177e-01, 
  -8.360360154824588719e-01,  5.251185724436420177e-01,  1.590417105383530039e-01, -8.360360154824588719e-01,  1.590417105383530039e-01, 
  -5.251185724436420177e-01, -8.360360154824588719e-01,  5.251185724436420177e-01, -1.590417105383530039e-01, -8.360360154824588719e-01, 
  -1.590417105383530039e-01,  5.251185724436420177e-01, -8.360360154824588719e-01, -5.251185724436420177e-01,  1.590417105383530039e-01, 
  -8.360360154824588719e-01, -1.590417105383530039e-01, -5.251185724436420177e-01, -8.360360154824588719e-01, -5.251185724436420177e-01, 
  -1.590417105383530039e-01, -8.360360154824588719e-01};
static const double unitSphereLebedevWeight3[194] = {
   2.239755062103846589e-02,  2.239755062103846589e-02,  2.239755062103846589e-02,  2.239755062103846589e-02,  2.239755062103846589e-02, 
   2.239755062103846589e-02,  7.184075893484735686e-02,  7.184075893484735686e-02,  7.184075893484735686e-02,  7.184075893484735686e-02, 
   7.184075893484735686e-02,  7.184075893484735686e-02,  7.184075893484735686e-02,  7.184075893484735686e-02,  7.184075893484735686e-02, 
   7.184075893484735686e-02,  7.184075893484735686e-02,  7.184075893484735686e-02,  7.003719860124849039e-02,  7.003719860124849039e-02, 
   7.003719860124849039e-02,  7.003719860124849039e-02,  7.003719860124849039e-02,  7.003719860124849039e-02,  7.003719860124849039e-02, 
   7.003719860124849039e-02,  6.935092759371100368e-02,  6.935092759371100368e-02,  6.935092759371100368e-02,  6.935092759371100368e-02, 
   6.935092759371100368e-02,  6.935092759371100368e-02,  6.935092759371100368e-02,  6.935092759371100368e-02,  6.935092759371100368e-02, 
   6.935092759371100368e-02,  6.935092759371100368e-02,  6.935092759371100368e-02,  6.935092759371100368e-02,  6.935092759371100368e-02, 
   6.935092759371100368e-02,  6.935092759371100368e-02,  6.935092759371100368e-02,  6.935092759371100368e-02,  6.935092759371100368e-02, 
   6.935092759371100368e-02,  6.935092759371100368e-02,  6.935092759371100368e-02,  6.935092759371100368e-02,  6.935092759371100368e-02, 
   6.482032680351046405e-02,  6.482032680351046405e-02,  6.482032680351046405e-02,  6.482032680351046405e-02,  6.482032680351046405e-02, 
   6.482032680351046405e-02,  6.482032680351046405e-02,  6.482032680351046405e-02,  6.482032680351046405e-02,  6.482032680351046405e-02, 
   6.482032680351046405e-02,  6.482032680351046405e-02,  6.482032680351046405e-02,  6.482032680351046405e-02,  6.482032680351046405e-02, 
   6.482032680351046405e-02,  6.482032680351046405e-02,  6.482032680351046405e-02,  6.482032680351046405e-02,  6.482032680351046405e-02, 
   6.482032680351046405e-02,  6.482032680351046405e-02,  6.482032680351046405e-02,  6.482032680351046405e-02,  7.048105416807012857e-02, 
   7.048105416807012857e-02,  7.048105416807012857e-02,  7.048105416807012857e-02,  7.048105416807012857e-02,  7.048105416807012857e-02, 
   7.048105416807012857e-02,  7.048105416807012857e-02,  7.048105416807012857e-02,  7.048105416807012857e-02,  7.048105416807012857e-02, 
   7.048105416807012857e-02,  7.048105416807012857e-02,  7.048105416807012857e-02,  7.048105416807012857e-02,  7.048105416807012857e-02, 
   7.048105416807012857e-02,  7.048105416807012857e-02,  7.048105416807012857e-02,  7.048105416807012857e-02,  7.048105416807012857e-02, 
   7.048105416807012857e-02,  7.048105416807012857e-02,  7.048105416807012857e-02,  5.160728216651316175e-02,  5.160728216651316175e-02, 
   5.160728216651316175e-02,  5.160728216651316175e-02,  5.160728216651316175e-02,  5.160728216651316175e-02,  5.160728216651316175e-02, 
   5.160728216651316175e-02,  5.160728216651316175e-02,  5.160728216651316175e-02,  5.160728216651316175e-02,  5.160728216651316175e-02, 
   5.160728216651316175e-02,  5.160728216651316175e-02,  5.160728216651316175e-02,  5.160728216651316175e-02,  5.160728216651316175e-02, 
   5.160728216651316175e-02,  5.160728216651316175e-02,  5.160728216651316175e-02,  5.160728216651316175e-02,  5.160728216651316175e-02, 
   5.160728216651316175e-02,  5.160728216651316175e-02,  6.348336993464155642e-02,  6.348336993464155642e-02,  6.348336993464155642e-02, 
   6.348336993464155642e-02,  6.348336993464155642e-02,  6.348336993464155642e-02,  6.348336993464155642e-02,  6.348336993464155642e-02, 
   6.348336993464155642e-02,  6.348336993464155642e-02,  6.348336993464155642e-02,  6.348336993464155642e-02,  6.348336993464155642e-02, 
   6.348336993464155642e-02,  6.348336993464155642e-02,  6.348336993464155642e-02,  6.348336993464155642e-02,  6.348336993464155642e-02, 
   6.348336993464155642e-02,  6.348336993464155642e-02,  6.348336993464155642e-02,  6.348336993464155642e-02,  6.348336993464155642e-02, 
   6.348336993464155642e-02,  6.949515747104322017e-02,  6.949515747104322017e-02,  6.949515747104322017e-02,  6.949515747104322017e-02, 
   6.949515747104322017e-02,  6.949515747104322017e-02,  6.949515747104322017e-02,  6.949515747104322017e-02,  6.949515747104322017e-02, 
   6.949515747104322017e-02,  6.949515747104322017e-02,  6.949515747104322017e-02,  6.949515747104322017e-02,  6.949515747104322017e-02, 
   6.949515747104322017e-02,  6.949515747104322017e-02,  6.949515747104322017e-02,  6.949515747104322017e-02,  6.949515747104322017e-02, 
   6.949515747104322017e-02,  6.949515747104322017e-02,  6.949515747104322017e-02,  6.949515747104322017e-02,  6.949515747104322017e-02, 
   6.949515747104322017e-02,  6.949515747104322017e-02,  6.949515747104322017e-02,  6.949515747104322017e-02,  6.949515747104322017e-02, 
   6.949515747104322017e-02,  6.949515747104322017e-02,  6.949515747104322017e-02,  6.949515747104322017e-02,  6.949515747104322017e-02, 
   6.949515747104322017e-02,  6.949515747104322017e-02,  6.949515747104322017e-02,  6.949515747104322017e-02,  6.949515747104322017e-02, 
   6.949515747104322017e-02,  6.949515747104322017e-02,  6.949515747104322017e-02,  6.949515747104322017e-02,  6.949515747104322017e-02, 
   6.949515747104322017e-02,  6.949515747104322017e-02,  6.949515747104322017e-02,  6.949515747104322017e-02};

static const double unitSphereLebedevCrd4[690] = {
   1.000000000000000000e+00,  0.000000000000000000e+00,  0.000000000000000000e+00, -1.000000000000000000e+00,  0.000000000000000000e+00, 
   0.000000000000000000e+00,  0.000000000000000000e+00,  1.000000000000000000e+00,  0.000000000000000000e+00,  0.000000000000000000e+00, 
  -1.000000000000000000e+00,  0.000000000000000000e+00,  0.000000000000000000e+00,  0.000000000000000000e+00,  1.000000000000000000e+00, 
   0.000000000000000000e+00,  0.000000000000000000e+00, -1.000000000000000000e+00,  5.773502691896258421e-01,  5.773502691896258421e-01, 
   5.773502691896258421e-01,  5.773502691896258421e-01,  5.773502691896258421e-01, -5.773502691896258421e-01,  5.773502691896258421e-01, 
  -5.773502691896258421e-01,  5.773502691896258421e-01,  5.773502691896258421e-01, -5.773502691896258421e-01, -5.773502691896258421e-01, 
  -5.773502691896258421e-01,  5.773502691896258421e-01,  5.773502691896258421e-01, -5.773502691896258421e-01,  5.773502691896258421e-01, 
  -5.773502691896258421e-01, -5.773502691896258421e-01, -5.773502691896258421e-01,  5.773502691896258421e-01, -5.773502691896258421e-01, 
  -5.773502691896258421e-01, -5.773502691896258421e-01,  6.981906658447242231e-01,  6.981906658447242231e-01,  1.583022054634783127e-01, 
   6.981906658447242231e-01,  6.981906658447242231e-01, -1.583022054634783127e-01,  6.981906658447242231e-01, -6.981906658447242231e-01, 
   1.583022054634783127e-01,  6.981906658447242231e-01, -6.981906658447242231e-01, -1.583022054634783127e-01, -6.981906658447242231e-01, 
   6.981906658447242231e-01,  1.583022054634783127e-01, -6.981906658447242231e-01,  6.981906658447242231e-01, -1.583022054634783127e-01, 
  -6.981906658447242231e-01, -6.981906658447242231e-01,  1.583022054634783127e-01, -6.981906658447242231e-01, -6.981906658447242231e-01, 
  -1.583022054634783127e-01,  1.583022054634783127e-01,  6.981906658447242231e-01,  6.981906658447242231e-01, -1.583022054634783127e-01, 
   6.981906658447242231e-01,  6.981906658447242231e-01,  1.583022054634783127e-01,  6.981906658447242231e-01, -6.981906658447242231e-01, 
  -1.583022054634783127e-01,  6.981906658447242231e-01, -6.981906658447242231e-01,  1.583022054634783127e-01, -6.981906658447242231e-01, 
   6.981906658447242231e-01, -1.583022054634783127e-01, -6.981906658447242231e-01,  6.981906658447242231e-01,  1.583022054634783127e-01, 
  -6.981906658447242231e-01, -6.981906658447242231e-01, -1.583022054634783127e-01, -6.981906658447242231e-01, -6.981906658447242231e-01, 
   6.981906658447242231e-01,  1.583022054634783127e-01,  6.981906658447242231e-01,  6.981906658447242231e-01, -1.583022054634783127e-01, 
   6.981906658447242231e-01, -6.981906658447242231e-01,  1.583022054634783127e-01,  6.981906658447242231e-01, -6.981906658447242231e-01, 
  -1.583022054634783127e-01,  6.981906658447242231e-01,  6.981906658447242231e-01,  1.583022054634783127e-01, -6.981906658447242231e-01, 
   6.981906658447242231e-01, -1.583022054634783127e-01, -6.981906658447242231e-01, -6.981906658447242231e-01,  1.583022054634783127e-01, 
  -6.981906658447242231e-01, -6.981906658447242231e-01, -1.583022054634783127e-01, -6.981906658447242231e-01,  6.587405243460959792e-01, 
   6.587405243460959792e-01,  3.634856849567271175e-01,  6.587405243460959792e-01,  6.587405243460959792e-01, -3.634856849567271175e-01, 
   6.587405243460959792e-01, -6.587405243460959792e-01,  3.634856849567271175e-01,  6.587405243460959792e-01, -6.587405243460959792e-01, 
  -3.634856849567271175e-01, -6.587405243460959792e-01,  6.587405243460959792e-01,  3.634856849567271175e-01, -6.587405243460959792e-01, 
   6.587405243460959792e-01, -3.634856849567271175e-01, -6.587405243460959792e-01, -6.587405243460959792e-01,  3.634856849567271175e-01, 
  -6.587405243460959792e-01, -6.587405243460959792e-01, -3.634856849567271175e-01,  3.634856849567271175e-01,  6.587405243460959792e-01, 
   6.587405243460959792e-01, -3.634856849567271175e-01,  6.587405243460959792e-01,  6.587405243460959792e-01,  3.634856849567271175e-01, 
   6.587405243460959792e-01, -6.587405243460959792e-01, -3.634856849567271175e-01,  6.587405243460959792e-01, -6.587405243460959792e-01, 
   3.634856849567271175e-01, -6.587405243460959792e-01,  6.587405243460959792e-01, -3.634856849567271175e-01, -6.587405243460959792e-01, 
   6.587405243460959792e-01,  3.634856849567271175e-01, -6.587405243460959792e-01, -6.587405243460959792e-01, -3.634856849567271175e-01, 
  -6.587405243460959792e-01, -6.587405243460959792e-01,  6.587405243460959792e-01,  3.634856849567271175e-01,  6.587405243460959792e-01, 
   6.587405243460959792e-01, -3.634856849567271175e-01,  6.587405243460959792e-01, -6.587405243460959792e-01,  3.634856849567271175e-01, 
   6.587405243460959792e-01, -6.587405243460959792e-01, -3.634856849567271175e-01,  6.587405243460959792e-01,  6.587405243460959792e-01, 
   3.634856849567271175e-01, -6.587405243460959792e-01,  6.587405243460959792e-01, -3.634856849567271175e-01, -6.587405243460959792e-01, 
  -6.587405243460959792e-01,  3.634856849567271175e-01, -6.587405243460959792e-01, -6.587405243460959792e-01, -3.634856849567271175e-01, 
  -6.587405243460959792e-01,  4.492044687397611091e-01,  4.492044687397611091e-01,  7.722892531483640521e-01,  4.492044687397611091e-01, 
   4.492044687397611091e-01, -7.722892531483640521e-01,  4.492044687397611091e-01, -4.492044687397611091e-01,  7.722892531483640521e-01, 
   4.492044687397611091e-01, -4.492044687397611091e-01, -7.722892531483640521e-01, -4.492044687397611091e-01,  4.492044687397611091e-01, 
   7.722892531483640521e-01, -4.492044687397611091e-01,  4.492044687397611091e-01, -7.722892531483640521e-01, -4.492044687397611091e-01, 
  -4.492044687397611091e-01,  7.722892531483640521e-01, -4.492044687397611091e-01, -4.492044687397611091e-01, -7.722892531483640521e-01, 
   7.722892531483640521e-01,  4.492044687397611091e-01,  4.492044687397611091e-01, -7.722892531483640521e-01,  4.492044687397611091e-01, 
   4.492044687397611091e-01,  7.722892531483640521e-01,  4.492044687397611091e-01, -4.492044687397611091e-01, -7.722892531483640521e-01, 
   4.492044687397611091e-01, -4.492044687397611091e-01,  7.722892531483640521e-01, -4.492044687397611091e-01,  4.492044687397611091e-01, 
  -7.722892531483640521e-01, -4.492044687397611091e-01,  4.492044687397611091e-01,  7.722892531483640521e-01, -4.492044687397611091e-01, 
  -4.492044687397611091e-01, -7.722892531483640521e-01, -4.492044687397611091e-01, -4.492044687397611091e-01,  4.492044687397611091e-01, 
   7.722892531483640521e-01,  4.492044687397611091e-01,  4.492044687397611091e-01, -7.722892531483640521e-01,  4.492044687397611091e-01, 
  -4.492044687397611091e-01,  7.722892531483640521e-01,  4.492044687397611091e-01, -4.492044687397611091e-01, -7.722892531483640521e-01, 
   4.492044687397611091e-01,  4.492044687397611091e-01,  7.722892531483640521e-01, -4.492044687397611091e-01,  4.492044687397611091e-01, 
  -7.722892531483640521e-01, -4.492044687397611091e-01, -4.492044687397611091e-01,  7.722892531483640521e-01, -4.492044687397611091e-01, 
  -4.492044687397611091e-01, -7.722892531483640521e-01, -4.492044687397611091e-01,  2.520419490210200619e-01,  2.520419490210200619e-01, 
   9.343177788458116861e-01,  2.520419490210200619e-01,  2.520419490210200619e-01, -9.343177788458116861e-01,  2.520419490210200619e-01, 
  -2.520419490210200619e-01,  9.343177788458116861e-01,  2.520419490210200619e-01, -2.520419490210200619e-01, -9.343177788458116861e-01, 
  -2.520419490210200619e-01,  2.520419490210200619e-01,  9.343177788458116861e-01, -2.520419490210200619e-01,  2.520419490210200619e-01, 
  -9.343177788458116861e-01, -2.520419490210200619e-01, -2.520419490210200619e-01,  9.343177788458116861e-01, -2.520419490210200619e-01, 
  -2.520419490210200619e-01, -9.343177788458116861e-01,  9.343177788458116861e-01,  2.520419490210200619e-01,  2.520419490210200619e-01, 
  -9.343177788458116861e-01,  2.520419490210200619e-01,  2.520419490210200619e-01,  9.343177788458116861e-01,  2.520419490210200619e-01, 
  -2.520419490210200619e-01, -9.343177788458116861e-01,  2.520419490210200619e-01, -2.520419490210200619e-01,  9.343177788458116861e-01, 
  -2.520419490210200619e-01,  2.520419490210200619e-01, -9.343177788458116861e-01, -2.520419490210200619e-01,  2.520419490210200619e-01, 
   9.343177788458116861e-01, -2.520419490210200619e-01, -2.520419490210200619e-01, -9.343177788458116861e-01, -2.520419490210200619e-01, 
  -2.520419490210200619e-01,  2.520419490210200619e-01,  9.343177788458116861e-01,  2.520419490210200619e-01,  2.520419490210200619e-01, 
  -9.343177788458116861e-01,  2.520419490210200619e-01, -2.520419490210200619e-01,  9.343177788458116861e-01,  2.520419490210200619e-01, 
  -2.520419490210200619e-01, -9.343177788458116861e-01,  2.520419490210200619e-01,  2.520419490210200619e-01,  9.343177788458116861e-01, 
  -2.520419490210200619e-01,  2.520419490210200619e-01, -9.343177788458116861e-01, -2.520419490210200619e-01, -2.520419490210200619e-01, 
   9.343177788458116861e-01, -2.520419490210200619e-01, -2.520419490210200619e-01, -9.343177788458116861e-01, -2.520419490210200619e-01, 
   4.038544050097658128e-02,  4.038544050097658128e-02,  9.983676839677274595e-01,  4.038544050097658128e-02,  4.038544050097658128e-02, 
  -9.983676839677274595e-01,  4.038544050097658128e-02, -4.038544050097658128e-02,  9.983676839677274595e-01,  4.038544050097658128e-02, 
  -4.038544050097658128e-02, -9.983676839677274595e-01, -4.038544050097658128e-02,  4.038544050097658128e-02,  9.983676839677274595e-01, 
  -4.038544050097658128e-02,  4.038544050097658128e-02, -9.983676839677274595e-01, -4.038544050097658128e-02, -4.038544050097658128e-02, 
   9.983676839677274595e-01, -4.038544050097658128e-02, -4.038544050097658128e-02, -9.983676839677274595e-01,  9.983676839677274595e-01, 
   4.038544050097658128e-02,  4.038544050097658128e-02, -9.983676839677274595e-01,  4.038544050097658128e-02,  4.038544050097658128e-02, 
   9.983676839677274595e-01,  4.038544050097658128e-02, -4.038544050097658128e-02, -9.983676839677274595e-01,  4.038544050097658128e-02, 
  -4.038544050097658128e-02,  9.983676839677274595e-01, -4.038544050097658128e-02,  4.038544050097658128e-02, -9.983676839677274595e-01, 
  -4.038544050097658128e-02,  4.038544050097658128e-02,  9.983676839677274595e-01, -4.038544050097658128e-02, -4.038544050097658128e-02, 
  -9.983676839677274595e-01, -4.038544050097658128e-02, -4.038544050097658128e-02,  4.038544050097658128e-02,  9.983676839677274595e-01, 
   4.038544050097658128e-02,  4.038544050097658128e-02, -9.983676839677274595e-01,  4.038544050097658128e-02, -4.038544050097658128e-02, 
   9.983676839677274595e-01,  4.038544050097658128e-02, -4.038544050097658128e-02, -9.983676839677274595e-01,  4.038544050097658128e-02, 
   4.038544050097658128e-02,  9.983676839677274595e-01, -4.038544050097658128e-02,  4.038544050097658128e-02, -9.983676839677274595e-01, 
  -4.038544050097658128e-02, -4.038544050097658128e-02,  9.983676839677274595e-01, -4.038544050097658128e-02, -4.038544050097658128e-02, 
  -9.983676839677274595e-01, -4.038544050097658128e-02,  0.000000000000000000e+00,  9.350227458805929759e-01,  3.545877390518685779e-01, 
   0.000000000000000000e+00,  9.350227458805929759e-01, -3.545877390518685779e-01,  0.000000000000000000e+00, -9.350227458805929759e-01, 
   3.545877390518685779e-01,  0.000000000000000000e+00, -9.350227458805929759e-01, -3.545877390518685779e-01,  3.545877390518685779e-01, 
   0.000000000000000000e+00,  9.350227458805929759e-01, -3.545877390518685779e-01,  0.000000000000000000e+00,  9.350227458805929759e-01, 
   3.545877390518685779e-01,  0.000000000000000000e+00, -9.350227458805929759e-01, -3.545877390518685779e-01,  0.000000000000000000e+00, 
  -9.350227458805929759e-01,  9.350227458805929759e-01,  3.545877390518685779e-01,  0.000000000000000000e+00,  9.350227458805929759e-01, 
  -3.545877390518685779e-01,  0.000000000000000000e+00, -9.350227458805929759e-01,  3.545877390518685779e-01,  0.000000000000000000e+00, 
  -9.350227458805929759e-01, -3.545877390518685779e-01,  0.000000000000000000e+00,  0.000000000000000000e+00,  3.545877390518685779e-01, 
   9.350227458805929759e-01,  0.000000000000000000e+00,  3.545877390518685779e-01, -9.350227458805929759e-01,  0.000000000000000000e+00, 
  -3.545877390518685779e-01,  9.350227458805929759e-01,  0.000000000000000000e+00, -3.545877390518685779e-01, -9.350227458805929759e-01, 
   9.350227458805929759e-01,  0.000000000000000000e+00,  3.545877390518685779e-01, -9.350227458805929759e-01,  0.000000000000000000e+00, 
   3.545877390518685779e-01,  9.350227458805929759e-01,  0.000000000000000000e+00, -3.545877390518685779e-01, -9.350227458805929759e-01, 
   0.000000000000000000e+00, -3.545877390518685779e-01,  3.545877390518685779e-01,  9.350227458805929759e-01,  0.000000000000000000e+00, 
   3.545877390518685779e-01, -9.350227458805929759e-01,  0.000000000000000000e+00, -3.545877390518685779e-01,  9.350227458805929759e-01, 
   0.000000000000000000e+00, -3.545877390518685779e-01, -9.350227458805929759e-01,  0.000000000000000000e+00,  0.000000000000000000e+00, 
   8.129136531733652804e-01,  5.823842309715584475e-01,  0.000000000000000000e+00,  8.129136531733652804e-01, -5.823842309715584475e-01, 
   0.000000000000000000e+00, -8.129136531733652804e-01,  5.823842309715584475e-01,  0.000000000000000000e+00, -8.129136531733652804e-01, 
  -5.823842309715584475e-01,  5.823842309715584475e-01,  0.000000000000000000e+00,  8.129136531733652804e-01, -5.823842309715584475e-01, 
   0.000000000000000000e+00,  8.129136531733652804e-01,  5.823842309715584475e-01,  0.000000000000000000e+00, -8.129136531733652804e-01, 
  -5.823842309715584475e-01,  0.000000000000000000e+00, -8.129136531733652804e-01,  8.129136531733652804e-01,  5.823842309715584475e-01, 
   0.000000000000000000e+00,  8.129136531733652804e-01, -5.823842309715584475e-01,  0.000000000000000000e+00, -8.129136531733652804e-01, 
   5.823842309715584475e-01,  0.000000000000000000e+00, -8.129136531733652804e-01, -5.823842309715584475e-01,  0.000000000000000000e+00, 
   0.000000000000000000e+00,  5.823842309715584475e-01,  8.129136531733652804e-01,  0.000000000000000000e+00,  5.823842309715584475e-01, 
  -8.129136531733652804e-01,  0.000000000000000000e+00, -5.823842309715584475e-01,  8.129136531733652804e-01,  0.000000000000000000e+00, 
  -5.823842309715584475e-01, -8.129136531733652804e-01,  8.129136531733652804e-01,  0.000000000000000000e+00,  5.823842309715584475e-01, 
  -8.129136531733652804e-01,  0.000000000000000000e+00,  5.823842309715584475e-01,  8.129136531733652804e-01,  0.000000000000000000e+00, 
  -5.823842309715584475e-01, -8.129136531733652804e-01,  0.000000000000000000e+00, -5.823842309715584475e-01,  5.823842309715584475e-01, 
   8.129136531733652804e-01,  0.000000000000000000e+00,  5.823842309715584475e-01, -8.129136531733652804e-01,  0.000000000000000000e+00, 
  -5.823842309715584475e-01,  8.129136531733652804e-01,  0.000000000000000000e+00, -5.823842309715584475e-01, -8.129136531733652804e-01, 
   0.000000000000000000e+00,  4.864661535886646848e-01,  8.436365210688943073e-01,  2.272181808998187114e-01,  4.864661535886646848e-01, 
   2.272181808998187114e-01,  8.436365210688943073e-01,  4.864661535886646848e-01,  8.436365210688943073e-01, -2.272181808998187114e-01, 
   4.864661535886646848e-01,  2.272181808998187114e-01, -8.436365210688943073e-01,  4.864661535886646848e-01, -8.436365210688943073e-01, 
   2.272181808998187114e-01,  4.864661535886646848e-01, -2.272181808998187114e-01,  8.436365210688943073e-01,  4.864661535886646848e-01, 
  -8.436365210688943073e-01, -2.272181808998187114e-01,  4.864661535886646848e-01, -2.272181808998187114e-01, -8.436365210688943073e-01, 
  -4.864661535886646848e-01,  8.436365210688943073e-01,  2.272181808998187114e-01, -4.864661535886646848e-01,  2.272181808998187114e-01, 
   8.436365210688943073e-01, -4.864661535886646848e-01,  8.436365210688943073e-01, -2.272181808998187114e-01, -4.864661535886646848e-01, 
   2.272181808998187114e-01, -8.436365210688943073e-01, -4.864661535886646848e-01, -8.436365210688943073e-01,  2.272181808998187114e-01, 
  -4.864661535886646848e-01, -2.272181808998187114e-01,  8.436365210688943073e-01, -4.864661535886646848e-01, -8.436365210688943073e-01, 
  -2.272181808998187114e-01, -4.864661535886646848e-01, -2.272181808998187114e-01, -8.436365210688943073e-01,  2.272181808998187114e-01, 
   4.864661535886646848e-01,  8.436365210688943073e-01,  8.436365210688943073e-01,  4.864661535886646848e-01,  2.272181808998187114e-01, 
  -2.272181808998187114e-01,  4.864661535886646848e-01,  8.436365210688943073e-01, -8.436365210688943073e-01,  4.864661535886646848e-01, 
   2.272181808998187114e-01,  2.272181808998187114e-01,  4.864661535886646848e-01, -8.436365210688943073e-01,  8.436365210688943073e-01, 
   4.864661535886646848e-01, -2.272181808998187114e-01, -2.272181808998187114e-01,  4.864661535886646848e-01, -8.436365210688943073e-01, 
  -8.436365210688943073e-01,  4.864661535886646848e-01, -2.272181808998187114e-01,  2.272181808998187114e-01, -4.864661535886646848e-01, 
   8.436365210688943073e-01,  8.436365210688943073e-01, -4.864661535886646848e-01,  2.272181808998187114e-01, -2.272181808998187114e-01, 
  -4.864661535886646848e-01,  8.436365210688943073e-01, -8.436365210688943073e-01, -4.864661535886646848e-01,  2.272181808998187114e-01, 
   2.272181808998187114e-01, -4.864661535886646848e-01, -8.436365210688943073e-01,  8.436365210688943073e-01, -4.864661535886646848e-01, 
  -2.272181808998187114e-01, -2.272181808998187114e-01, -4.864661535886646848e-01, -8.436365210688943073e-01, -8.436365210688943073e-01, 
  -4.864661535886646848e-01, -2.272181808998187114e-01,  8.436365210688943073e-01,  2.272181808998187114e-01,  4.864661535886646848e-01, 
   2.272181808998187114e-01,  8.436365210688943073e-01,  4.864661535886646848e-01,  8.436365210688943073e-01, -2.272181808998187114e-01, 
   4.864661535886646848e-01,  2.272181808998187114e-01, -8.436365210688943073e-01,  4.864661535886646848e-01, -8.436365210688943073e-01, 
   2.272181808998187114e-01,  4.864661535886646848e-01, -2.272181808998187114e-01,  8.436365210688943073e-01,  4.864661535886646848e-01, 
  -8.436365210688943073e-01, -2.272181808998187114e-01,  4.864661535886646848e-01, -2.272181808998187114e-01, -8.436365210688943073e-01, 
   4.864661535886646848e-01,  8.436365210688943073e-01,  2.272181808998187114e-01, -4.864661535886646848e-01,  2.272181808998187114e-01, 
   8.436365210688943073e-01, -4.864661535886646848e-01,  8.436365210688943073e-01, -2.272181808998187114e-01, -4.864661535886646848e-01, 
   2.272181808998187114e-01, -8.436365210688943073e-01, -4.864661535886646848e-01, -8.436365210688943073e-01,  2.272181808998187114e-01, 
  -4.864661535886646848e-01, -2.272181808998187114e-01,  8.436365210688943073e-01, -4.864661535886646848e-01, -8.436365210688943073e-01, 
  -2.272181808998187114e-01, -4.864661535886646848e-01, -2.272181808998187114e-01, -8.436365210688943073e-01, -4.864661535886646848e-01};
static const double unitSphereLebedevWeight4[230] = {
  -6.939954000094835651e-01, -6.939954000094835651e-01, -6.939954000094835651e-01, -6.939954000094835651e-01, -6.939954000094835651e-01, 
  -6.939954000094835651e-01,  5.592380005282848732e-02,  5.592380005282848732e-02,  5.592380005282848732e-02,  5.592380005282848732e-02, 
   5.592380005282848732e-02,  5.592380005282848732e-02,  5.592380005282848732e-02,  5.592380005282848732e-02,  4.996901686874937604e-02, 
   4.996901686874937604e-02,  4.996901686874937604e-02,  4.996901686874937604e-02,  4.996901686874937604e-02,  4.996901686874937604e-02, 
   4.996901686874937604e-02,  4.996901686874937604e-02,  4.996901686874937604e-02,  4.996901686874937604e-02,  4.996901686874937604e-02, 
   4.996901686874937604e-02,  4.996901686874937604e-02,  4.996901686874937604e-02,  4.996901686874937604e-02,  4.996901686874937604e-02, 
   4.996901686874937604e-02,  4.996901686874937604e-02,  4.996901686874937604e-02,  4.996901686874937604e-02,  4.996901686874937604e-02, 
   4.996901686874937604e-02,  4.996901686874937604e-02,  4.996901686874937604e-02,  5.530963179496933141e-02,  5.530963179496933141e-02, 
   5.530963179496933141e-02,  5.530963179496933141e-02,  5.530963179496933141e-02,  5.530963179496933141e-02,  5.530963179496933141e-02, 
   5.530963179496933141e-02,  5.530963179496933141e-02,  5.530963179496933141e-02,  5.530963179496933141e-02,  5.530963179496933141e-02, 
   5.530963179496933141e-02,  5.530963179496933141e-02,  5.530963179496933141e-02,  5.530963179496933141e-02,  5.530963179496933141e-02, 
   5.530963179496933141e-02,  5.530963179496933141e-02,  5.530963179496933141e-02,  5.530963179496933141e-02,  5.530963179496933141e-02, 
   5.530963179496933141e-02,  5.530963179496933141e-02,  5.650897145337105409e-02,  5.650897145337105409e-02,  5.650897145337105409e-02, 
   5.650897145337105409e-02,  5.650897145337105409e-02,  5.650897145337105409e-02,  5.650897145337105409e-02,  5.650897145337105409e-02, 
   5.650897145337105409e-02,  5.650897145337105409e-02,  5.650897145337105409e-02,  5.650897145337105409e-02,  5.650897145337105409e-02, 
   5.650897145337105409e-02,  5.650897145337105409e-02,  5.650897145337105409e-02,  5.650897145337105409e-02,  5.650897145337105409e-02, 
   5.650897145337105409e-02,  5.650897145337105409e-02,  5.650897145337105409e-02,  5.650897145337105409e-02,  5.650897145337105409e-02, 
   5.650897145337105409e-02,  6.344953354748637808e-02,  6.344953354748637808e-02,  6.344953354748637808e-02,  6.344953354748637808e-02, 
   6.344953354748637808e-02,  6.344953354748637808e-02,  6.344953354748637808e-02,  6.344953354748637808e-02,  6.344953354748637808e-02, 
   6.344953354748637808e-02,  6.344953354748637808e-02,  6.344953354748637808e-02,  6.344953354748637808e-02,  6.344953354748637808e-02, 
   6.344953354748637808e-02,  6.344953354748637808e-02,  6.344953354748637808e-02,  6.344953354748637808e-02,  6.344953354748637808e-02, 
   6.344953354748637808e-02,  6.344953354748637808e-02,  6.344953354748637808e-02,  6.344953354748637808e-02,  6.344953354748637808e-02, 
   2.167126344984028341e-01,  2.167126344984028341e-01,  2.167126344984028341e-01,  2.167126344984028341e-01,  2.167126344984028341e-01, 
   2.167126344984028341e-01,  2.167126344984028341e-01,  2.167126344984028341e-01,  2.167126344984028341e-01,  2.167126344984028341e-01, 
   2.167126344984028341e-01,  2.167126344984028341e-01,  2.167126344984028341e-01,  2.167126344984028341e-01,  2.167126344984028341e-01, 
   2.167126344984028341e-01,  2.167126344984028341e-01,  2.167126344984028341e-01,  2.167126344984028341e-01,  2.167126344984028341e-01, 
   2.167126344984028341e-01,  2.167126344984028341e-01,  2.167126344984028341e-01,  2.167126344984028341e-01,  6.532087239116483868e-02, 
   6.532087239116483868e-02,  6.532087239116483868e-02,  6.532087239116483868e-02,  6.532087239116483868e-02,  6.532087239116483868e-02, 
   6.532087239116483868e-02,  6.532087239116483868e-02,  6.532087239116483868e-02,  6.532087239116483868e-02,  6.532087239116483868e-02, 
   6.532087239116483868e-02,  6.532087239116483868e-02,  6.532087239116483868e-02,  6.532087239116483868e-02,  6.532087239116483868e-02, 
   6.532087239116483868e-02,  6.532087239116483868e-02,  6.532087239116483868e-02,  6.532087239116483868e-02,  6.532087239116483868e-02, 
   6.532087239116483868e-02,  6.532087239116483868e-02,  6.532087239116483868e-02,  5.316935827641035978e-02,  5.316935827641035978e-02, 
   5.316935827641035978e-02,  5.316935827641035978e-02,  5.316935827641035978e-02,  5.316935827641035978e-02,  5.316935827641035978e-02, 
   5.316935827641035978e-02,  5.316935827641035978e-02,  5.316935827641035978e-02,  5.316935827641035978e-02,  5.316935827641035978e-02, 
   5.316935827641035978e-02,  5.316935827641035978e-02,  5.316935827641035978e-02,  5.316935827641035978e-02,  5.316935827641035978e-02, 
   5.316935827641035978e-02,  5.316935827641035978e-02,  5.316935827641035978e-02,  5.316935827641035978e-02,  5.316935827641035978e-02, 
   5.316935827641035978e-02,  5.316935827641035978e-02,  5.900817004291968038e-02,  5.900817004291968038e-02,  5.900817004291968038e-02, 
   5.900817004291968038e-02,  5.900817004291968038e-02,  5.900817004291968038e-02,  5.900817004291968038e-02,  5.900817004291968038e-02, 
   5.900817004291968038e-02,  5.900817004291968038e-02,  5.900817004291968038e-02,  5.900817004291968038e-02,  5.900817004291968038e-02, 
   5.900817004291968038e-02,  5.900817004291968038e-02,  5.900817004291968038e-02,  5.900817004291968038e-02,  5.900817004291968038e-02, 
   5.900817004291968038e-02,  5.900817004291968038e-02,  5.900817004291968038e-02,  5.900817004291968038e-02,  5.900817004291968038e-02, 
   5.900817004291968038e-02,  5.900817004291968038e-02,  5.900817004291968038e-02,  5.900817004291968038e-02,  5.900817004291968038e-02, 
   5.900817004291968038e-02,  5.900817004291968038e-02,  5.900817004291968038e-02,  5.900817004291968038e-02,  5.900817004291968038e-02, 
   5.900817004291968038e-02,  5.900817004291968038e-02,  5.900817004291968038e-02,  5.900817004291968038e-02,  5.900817004291968038e-02, 
   5.900817004291968038e-02,  5.900817004291968038e-02,  5.900817004291968038e-02,  5.900817004291968038e-02,  5.900817004291968038e-02, 
   5.900817004291968038e-02,  5.900817004291968038e-02,  5.900817004291968038e-02,  5.900817004291968038e-02,  5.900817004291968038e-02};

static const double unitSphereLebedevCrd5[798] = {
   1.000000000000000000e+00,  0.000000000000000000e+00,  0.000000000000000000e+00, -1.000000000000000000e+00,  0.000000000000000000e+00, 
   0.000000000000000000e+00,  0.000000000000000000e+00,  1.000000000000000000e+00,  0.000000000000000000e+00,  0.000000000000000000e+00, 
  -1.000000000000000000e+00,  0.000000000000000000e+00,  0.000000000000000000e+00,  0.000000000000000000e+00,  1.000000000000000000e+00, 
   0.000000000000000000e+00,  0.000000000000000000e+00, -1.000000000000000000e+00,  0.000000000000000000e+00,  7.071067811865474617e-01, 
   7.071067811865474617e-01,  0.000000000000000000e+00,  7.071067811865474617e-01, -7.071067811865474617e-01,  0.000000000000000000e+00, 
  -7.071067811865474617e-01,  7.071067811865474617e-01,  0.000000000000000000e+00, -7.071067811865474617e-01, -7.071067811865474617e-01, 
   7.071067811865474617e-01,  0.000000000000000000e+00,  7.071067811865474617e-01, -7.071067811865474617e-01,  0.000000000000000000e+00, 
   7.071067811865474617e-01,  7.071067811865474617e-01,  0.000000000000000000e+00, -7.071067811865474617e-01, -7.071067811865474617e-01, 
   0.000000000000000000e+00, -7.071067811865474617e-01,  7.071067811865474617e-01,  7.071067811865474617e-01,  0.000000000000000000e+00, 
   7.071067811865474617e-01, -7.071067811865474617e-01,  0.000000000000000000e+00, -7.071067811865474617e-01,  7.071067811865474617e-01, 
   0.000000000000000000e+00, -7.071067811865474617e-01, -7.071067811865474617e-01,  0.000000000000000000e+00,  5.773502691896258421e-01, 
   5.773502691896258421e-01,  5.773502691896258421e-01,  5.773502691896258421e-01,  5.773502691896258421e-01, -5.773502691896258421e-01, 
   5.773502691896258421e-01, -5.773502691896258421e-01,  5.773502691896258421e-01,  5.773502691896258421e-01, -5.773502691896258421e-01, 
  -5.773502691896258421e-01, -5.773502691896258421e-01,  5.773502691896258421e-01,  5.773502691896258421e-01, -5.773502691896258421e-01, 
   5.773502691896258421e-01, -5.773502691896258421e-01, -5.773502691896258421e-01, -5.773502691896258421e-01,  5.773502691896258421e-01, 
  -5.773502691896258421e-01, -5.773502691896258421e-01, -5.773502691896258421e-01,  7.039373391585475037e-01,  7.039373391585475037e-01, 
   9.457507640371309865e-02,  7.039373391585475037e-01,  7.039373391585475037e-01, -9.457507640371309865e-02,  7.039373391585475037e-01, 
  -7.039373391585475037e-01,  9.457507640371309865e-02,  7.039373391585475037e-01, -7.039373391585475037e-01, -9.457507640371309865e-02, 
  -7.039373391585475037e-01,  7.039373391585475037e-01,  9.457507640371309865e-02, -7.039373391585475037e-01,  7.039373391585475037e-01, 
  -9.457507640371309865e-02, -7.039373391585475037e-01, -7.039373391585475037e-01,  9.457507640371309865e-02, -7.039373391585475037e-01, 
  -7.039373391585475037e-01, -9.457507640371309865e-02,  9.457507640371309865e-02,  7.039373391585475037e-01,  7.039373391585475037e-01, 
  -9.457507640371309865e-02,  7.039373391585475037e-01,  7.039373391585475037e-01,  9.457507640371309865e-02,  7.039373391585475037e-01, 
  -7.039373391585475037e-01, -9.457507640371309865e-02,  7.039373391585475037e-01, -7.039373391585475037e-01,  9.457507640371309865e-02, 
  -7.039373391585475037e-01,  7.039373391585475037e-01, -9.457507640371309865e-02, -7.039373391585475037e-01,  7.039373391585475037e-01, 
   9.457507640371309865e-02, -7.039373391585475037e-01, -7.039373391585475037e-01, -9.457507640371309865e-02, -7.039373391585475037e-01, 
  -7.039373391585475037e-01,  7.039373391585475037e-01,  9.457507640371309865e-02,  7.039373391585475037e-01,  7.039373391585475037e-01, 
  -9.457507640371309865e-02,  7.039373391585475037e-01, -7.039373391585475037e-01,  9.457507640371309865e-02,  7.039373391585475037e-01, 
  -7.039373391585475037e-01, -9.457507640371309865e-02,  7.039373391585475037e-01,  7.039373391585475037e-01,  9.457507640371309865e-02, 
  -7.039373391585475037e-01,  7.039373391585475037e-01, -9.457507640371309865e-02, -7.039373391585475037e-01, -7.039373391585475037e-01, 
   9.457507640371309865e-02, -7.039373391585475037e-01, -7.039373391585475037e-01, -9.457507640371309865e-02, -7.039373391585475037e-01, 
   6.620338663699973925e-01,  6.620338663699973925e-01,  3.513151285646334276e-01,  6.620338663699973925e-01,  6.620338663699973925e-01, 
  -3.513151285646334276e-01,  6.620338663699973925e-01, -6.620338663699973925e-01,  3.513151285646334276e-01,  6.620338663699973925e-01, 
  -6.620338663699973925e-01, -3.513151285646334276e-01, -6.620338663699973925e-01,  6.620338663699973925e-01,  3.513151285646334276e-01, 
  -6.620338663699973925e-01,  6.620338663699973925e-01, -3.513151285646334276e-01, -6.620338663699973925e-01, -6.620338663699973925e-01, 
   3.513151285646334276e-01, -6.620338663699973925e-01, -6.620338663699973925e-01, -3.513151285646334276e-01,  3.513151285646334276e-01, 
   6.620338663699973925e-01,  6.620338663699973925e-01, -3.513151285646334276e-01,  6.620338663699973925e-01,  6.620338663699973925e-01, 
   3.513151285646334276e-01,  6.620338663699973925e-01, -6.620338663699973925e-01, -3.513151285646334276e-01,  6.620338663699973925e-01, 
  -6.620338663699973925e-01,  3.513151285646334276e-01, -6.620338663699973925e-01,  6.620338663699973925e-01, -3.513151285646334276e-01, 
  -6.620338663699973925e-01,  6.620338663699973925e-01,  3.513151285646334276e-01, -6.620338663699973925e-01, -6.620338663699973925e-01, 
  -3.513151285646334276e-01, -6.620338663699973925e-01, -6.620338663699973925e-01,  6.620338663699973925e-01,  3.513151285646334276e-01, 
   6.620338663699973925e-01,  6.620338663699973925e-01, -3.513151285646334276e-01,  6.620338663699973925e-01, -6.620338663699973925e-01, 
   3.513151285646334276e-01,  6.620338663699973925e-01, -6.620338663699973925e-01, -3.513151285646334276e-01,  6.620338663699973925e-01, 
   6.620338663699973925e-01,  3.513151285646334276e-01, -6.620338663699973925e-01,  6.620338663699973925e-01, -3.513151285646334276e-01, 
  -6.620338663699973925e-01, -6.620338663699973925e-01,  3.513151285646334276e-01, -6.620338663699973925e-01, -6.620338663699973925e-01, 
  -3.513151285646334276e-01, -6.620338663699973925e-01,  4.647448726420538301e-01,  4.647448726420538301e-01,  7.536739392508157165e-01, 
   4.647448726420538301e-01,  4.647448726420538301e-01, -7.536739392508157165e-01,  4.647448726420538301e-01, -4.647448726420538301e-01, 
   7.536739392508157165e-01,  4.647448726420538301e-01, -4.647448726420538301e-01, -7.536739392508157165e-01, -4.647448726420538301e-01, 
   4.647448726420538301e-01,  7.536739392508157165e-01, -4.647448726420538301e-01,  4.647448726420538301e-01, -7.536739392508157165e-01, 
  -4.647448726420538301e-01, -4.647448726420538301e-01,  7.536739392508157165e-01, -4.647448726420538301e-01, -4.647448726420538301e-01, 
  -7.536739392508157165e-01,  7.536739392508157165e-01,  4.647448726420538301e-01,  4.647448726420538301e-01, -7.536739392508157165e-01, 
   4.647448726420538301e-01,  4.647448726420538301e-01,  7.536739392508157165e-01,  4.647448726420538301e-01, -4.647448726420538301e-01, 
  -7.536739392508157165e-01,  4.647448726420538301e-01, -4.647448726420538301e-01,  7.536739392508157165e-01, -4.647448726420538301e-01, 
   4.647448726420538301e-01, -7.536739392508157165e-01, -4.647448726420538301e-01,  4.647448726420538301e-01,  7.536739392508157165e-01, 
  -4.647448726420538301e-01, -4.647448726420538301e-01, -7.536739392508157165e-01, -4.647448726420538301e-01, -4.647448726420538301e-01, 
   4.647448726420538301e-01,  7.536739392508157165e-01,  4.647448726420538301e-01,  4.647448726420538301e-01, -7.536739392508157165e-01, 
   4.647448726420538301e-01, -4.647448726420538301e-01,  7.536739392508157165e-01,  4.647448726420538301e-01, -4.647448726420538301e-01, 
  -7.536739392508157165e-01,  4.647448726420538301e-01,  4.647448726420538301e-01,  7.536739392508157165e-01, -4.647448726420538301e-01, 
   4.647448726420538301e-01, -7.536739392508157165e-01, -4.647448726420538301e-01, -4.647448726420538301e-01,  7.536739392508157165e-01, 
  -4.647448726420538301e-01, -4.647448726420538301e-01, -7.536739392508157165e-01, -4.647448726420538301e-01,  3.277420654971627823e-01, 
   3.277420654971627823e-01,  8.860983449974990656e-01,  3.277420654971627823e-01,  3.277420654971627823e-01, -8.860983449974990656e-01, 
   3.277420654971627823e-01, -3.277420654971627823e-01,  8.860983449974990656e-01,  3.277420654971627823e-01, -3.277420654971627823e-01, 
  -8.860983449974990656e-01, -3.277420654971627823e-01,  3.277420654971627823e-01,  8.860983449974990656e-01, -3.277420654971627823e-01, 
   3.277420654971627823e-01, -8.860983449974990656e-01, -3.277420654971627823e-01, -3.277420654971627823e-01,  8.860983449974990656e-01, 
  -3.277420654971627823e-01, -3.277420654971627823e-01, -8.860983449974990656e-01,  8.860983449974990656e-01,  3.277420654971627823e-01, 
   3.277420654971627823e-01, -8.860983449974990656e-01,  3.277420654971627823e-01,  3.277420654971627823e-01,  8.860983449974990656e-01, 
   3.277420654971627823e-01, -3.277420654971627823e-01, -8.860983449974990656e-01,  3.277420654971627823e-01, -3.277420654971627823e-01, 
   8.860983449974990656e-01, -3.277420654971627823e-01,  3.277420654971627823e-01, -8.860983449974990656e-01, -3.277420654971627823e-01, 
   3.277420654971627823e-01,  8.860983449974990656e-01, -3.277420654971627823e-01, -3.277420654971627823e-01, -8.860983449974990656e-01, 
  -3.277420654971627823e-01, -3.277420654971627823e-01,  3.277420654971627823e-01,  8.860983449974990656e-01,  3.277420654971627823e-01, 
   3.277420654971627823e-01, -8.860983449974990656e-01,  3.277420654971627823e-01, -3.277420654971627823e-01,  8.860983449974990656e-01, 
   3.277420654971627823e-01, -3.277420654971627823e-01, -8.860983449974990656e-01,  3.277420654971627823e-01,  3.277420654971627823e-01, 
   8.860983449974990656e-01, -3.277420654971627823e-01,  3.277420654971627823e-01, -8.860983449974990656e-01, -3.277420654971627823e-01, 
  -3.277420654971627823e-01,  8.860983449974990656e-01, -3.277420654971627823e-01, -3.277420654971627823e-01, -8.860983449974990656e-01, 
  -3.277420654971627823e-01,  1.012526248572417492e-01,  1.012526248572417492e-01,  9.896948074629053904e-01,  1.012526248572417492e-01, 
   1.012526248572417492e-01, -9.896948074629053904e-01,  1.012526248572417492e-01, -1.012526248572417492e-01,  9.896948074629053904e-01, 
   1.012526248572417492e-01, -1.012526248572417492e-01, -9.896948074629053904e-01, -1.012526248572417492e-01,  1.012526248572417492e-01, 
   9.896948074629053904e-01, -1.012526248572417492e-01,  1.012526248572417492e-01, -9.896948074629053904e-01, -1.012526248572417492e-01, 
  -1.012526248572417492e-01,  9.896948074629053904e-01, -1.012526248572417492e-01, -1.012526248572417492e-01, -9.896948074629053904e-01, 
   9.896948074629053904e-01,  1.012526248572417492e-01,  1.012526248572417492e-01, -9.896948074629053904e-01,  1.012526248572417492e-01, 
   1.012526248572417492e-01,  9.896948074629053904e-01,  1.012526248572417492e-01, -1.012526248572417492e-01, -9.896948074629053904e-01, 
   1.012526248572417492e-01, -1.012526248572417492e-01,  9.896948074629053904e-01, -1.012526248572417492e-01,  1.012526248572417492e-01, 
  -9.896948074629053904e-01, -1.012526248572417492e-01,  1.012526248572417492e-01,  9.896948074629053904e-01, -1.012526248572417492e-01, 
  -1.012526248572417492e-01, -9.896948074629053904e-01, -1.012526248572417492e-01, -1.012526248572417492e-01,  1.012526248572417492e-01, 
   9.896948074629053904e-01,  1.012526248572417492e-01,  1.012526248572417492e-01, -9.896948074629053904e-01,  1.012526248572417492e-01, 
  -1.012526248572417492e-01,  9.896948074629053904e-01,  1.012526248572417492e-01, -1.012526248572417492e-01, -9.896948074629053904e-01, 
   1.012526248572417492e-01,  1.012526248572417492e-01,  9.896948074629053904e-01, -1.012526248572417492e-01,  1.012526248572417492e-01, 
  -9.896948074629053904e-01, -1.012526248572417492e-01, -1.012526248572417492e-01,  9.896948074629053904e-01, -1.012526248572417492e-01, 
  -1.012526248572417492e-01, -9.896948074629053904e-01, -1.012526248572417492e-01,  0.000000000000000000e+00,  8.506508083520398777e-01, 
   5.257311121191337033e-01,  0.000000000000000000e+00,  8.506508083520398777e-01, -5.257311121191337033e-01,  0.000000000000000000e+00, 
  -8.506508083520398777e-01,  5.257311121191337033e-01,  0.000000000000000000e+00, -8.506508083520398777e-01, -5.257311121191337033e-01, 
   5.257311121191337033e-01,  0.000000000000000000e+00,  8.506508083520398777e-01, -5.257311121191337033e-01,  0.000000000000000000e+00, 
   8.506508083520398777e-01,  5.257311121191337033e-01,  0.000000000000000000e+00, -8.506508083520398777e-01, -5.257311121191337033e-01, 
   0.000000000000000000e+00, -8.506508083520398777e-01,  8.506508083520398777e-01,  5.257311121191337033e-01,  0.000000000000000000e+00, 
   8.506508083520398777e-01, -5.257311121191337033e-01,  0.000000000000000000e+00, -8.506508083520398777e-01,  5.257311121191337033e-01, 
   0.000000000000000000e+00, -8.506508083520398777e-01, -5.257311121191337033e-01,  0.000000000000000000e+00,  0.000000000000000000e+00, 
   5.257311121191337033e-01,  8.506508083520398777e-01,  0.000000000000000000e+00,  5.257311121191337033e-01, -8.506508083520398777e-01, 
   0.000000000000000000e+00, -5.257311121191337033e-01,  8.506508083520398777e-01,  0.000000000000000000e+00, -5.257311121191337033e-01, 
  -8.506508083520398777e-01,  8.506508083520398777e-01,  0.000000000000000000e+00,  5.257311121191337033e-01, -8.506508083520398777e-01, 
   0.000000000000000000e+00,  5.257311121191337033e-01,  8.506508083520398777e-01,  0.000000000000000000e+00, -5.257311121191337033e-01, 
  -8.506508083520398777e-01,  0.000000000000000000e+00, -5.257311121191337033e-01,  5.257311121191337033e-01,  8.506508083520398777e-01, 
   0.000000000000000000e+00,  5.257311121191337033e-01, -8.506508083520398777e-01,  0.000000000000000000e+00, -5.257311121191337033e-01, 
   8.506508083520398777e-01,  0.000000000000000000e+00, -5.257311121191337033e-01, -8.506508083520398777e-01,  0.000000000000000000e+00, 
   8.193433888191202774e-01,  5.244939240922364965e-01,  2.314790158712601298e-01,  8.193433888191202774e-01,  2.314790158712601298e-01, 
   5.244939240922364965e-01,  8.193433888191202774e-01,  5.244939240922364965e-01, -2.314790158712601298e-01,  8.193433888191202774e-01, 
   2.314790158712601298e-01, -5.244939240922364965e-01,  8.193433888191202774e-01, -5.244939240922364965e-01,  2.314790158712601298e-01, 
   8.193433888191202774e-01, -2.314790158712601298e-01,  5.244939240922364965e-01,  8.193433888191202774e-01, -5.244939240922364965e-01, 
  -2.314790158712601298e-01,  8.193433888191202774e-01, -2.314790158712601298e-01, -5.244939240922364965e-01, -8.193433888191202774e-01, 
   5.244939240922364965e-01,  2.314790158712601298e-01, -8.193433888191202774e-01,  2.314790158712601298e-01,  5.244939240922364965e-01, 
  -8.193433888191202774e-01,  5.244939240922364965e-01, -2.314790158712601298e-01, -8.193433888191202774e-01,  2.314790158712601298e-01, 
  -5.244939240922364965e-01, -8.193433888191202774e-01, -5.244939240922364965e-01,  2.314790158712601298e-01, -8.193433888191202774e-01, 
  -2.314790158712601298e-01,  5.244939240922364965e-01, -8.193433888191202774e-01, -5.244939240922364965e-01, -2.314790158712601298e-01, 
  -8.193433888191202774e-01, -2.314790158712601298e-01, -5.244939240922364965e-01,  2.314790158712601298e-01,  8.193433888191202774e-01, 
   5.244939240922364965e-01,  5.244939240922364965e-01,  8.193433888191202774e-01,  2.314790158712601298e-01, -2.314790158712601298e-01, 
   8.193433888191202774e-01,  5.244939240922364965e-01, -5.244939240922364965e-01,  8.193433888191202774e-01,  2.314790158712601298e-01, 
   2.314790158712601298e-01,  8.193433888191202774e-01, -5.244939240922364965e-01,  5.244939240922364965e-01,  8.193433888191202774e-01, 
  -2.314790158712601298e-01, -2.314790158712601298e-01,  8.193433888191202774e-01, -5.244939240922364965e-01, -5.244939240922364965e-01, 
   8.193433888191202774e-01, -2.314790158712601298e-01,  2.314790158712601298e-01, -8.193433888191202774e-01,  5.244939240922364965e-01, 
   5.244939240922364965e-01, -8.193433888191202774e-01,  2.314790158712601298e-01, -2.314790158712601298e-01, -8.193433888191202774e-01, 
   5.244939240922364965e-01, -5.244939240922364965e-01, -8.193433888191202774e-01,  2.314790158712601298e-01,  2.314790158712601298e-01, 
  -8.193433888191202774e-01, -5.244939240922364965e-01,  5.244939240922364965e-01, -8.193433888191202774e-01, -2.314790158712601298e-01, 
  -2.314790158712601298e-01, -8.193433888191202774e-01, -5.244939240922364965e-01, -5.244939240922364965e-01, -8.193433888191202774e-01, 
  -2.314790158712601298e-01,  5.244939240922364965e-01,  2.314790158712601298e-01,  8.193433888191202774e-01,  2.314790158712601298e-01, 
   5.244939240922364965e-01,  8.193433888191202774e-01,  5.244939240922364965e-01, -2.314790158712601298e-01,  8.193433888191202774e-01, 
   2.314790158712601298e-01, -5.244939240922364965e-01,  8.193433888191202774e-01, -5.244939240922364965e-01,  2.314790158712601298e-01, 
   8.193433888191202774e-01, -2.314790158712601298e-01,  5.244939240922364965e-01,  8.193433888191202774e-01, -5.244939240922364965e-01, 
  -2.314790158712601298e-01,  8.193433888191202774e-01, -2.314790158712601298e-01, -5.244939240922364965e-01,  8.193433888191202774e-01, 
   5.244939240922364965e-01,  2.314790158712601298e-01, -8.193433888191202774e-01,  2.314790158712601298e-01,  5.244939240922364965e-01, 
  -8.193433888191202774e-01,  5.244939240922364965e-01, -2.314790158712601298e-01, -8.193433888191202774e-01,  2.314790158712601298e-01, 
  -5.244939240922364965e-01, -8.193433888191202774e-01, -5.244939240922364965e-01,  2.314790158712601298e-01, -8.193433888191202774e-01, 
  -2.314790158712601298e-01,  5.244939240922364965e-01, -8.193433888191202774e-01, -5.244939240922364965e-01, -2.314790158712601298e-01, 
  -8.193433888191202774e-01, -2.314790158712601298e-01, -5.244939240922364965e-01, -8.193433888191202774e-01,  9.392279297499157575e-01, 
   3.233484542692898756e-01,  1.153112011009695126e-01,  9.392279297499157575e-01,  1.153112011009695126e-01,  3.233484542692898756e-01, 
   9.392279297499157575e-01,  3.233484542692898756e-01, -1.153112011009695126e-01,  9.392279297499157575e-01,  1.153112011009695126e-01, 
  -3.233484542692898756e-01,  9.392279297499157575e-01, -3.233484542692898756e-01,  1.153112011009695126e-01,  9.392279297499157575e-01, 
  -1.153112011009695126e-01,  3.233484542692898756e-01,  9.392279297499157575e-01, -3.233484542692898756e-01, -1.153112011009695126e-01, 
   9.392279297499157575e-01, -1.153112011009695126e-01, -3.233484542692898756e-01, -9.392279297499157575e-01,  3.233484542692898756e-01, 
   1.153112011009695126e-01, -9.392279297499157575e-01,  1.153112011009695126e-01,  3.233484542692898756e-01, -9.392279297499157575e-01, 
   3.233484542692898756e-01, -1.153112011009695126e-01, -9.392279297499157575e-01,  1.153112011009695126e-01, -3.233484542692898756e-01, 
  -9.392279297499157575e-01, -3.233484542692898756e-01,  1.153112011009695126e-01, -9.392279297499157575e-01, -1.153112011009695126e-01, 
   3.233484542692898756e-01, -9.392279297499157575e-01, -3.233484542692898756e-01, -1.153112011009695126e-01, -9.392279297499157575e-01, 
  -1.153112011009695126e-01, -3.233484542692898756e-01,  1.153112011009695126e-01,  9.392279297499157575e-01,  3.233484542692898756e-01, 
   3.233484542692898756e-01,  9.392279297499157575e-01,  1.153112011009695126e-01, -1.153112011009695126e-01,  9.392279297499157575e-01, 
   3.233484542692898756e-01, -3.233484542692898756e-01,  9.392279297499157575e-01,  1.153112011009695126e-01,  1.153112011009695126e-01, 
   9.392279297499157575e-01, -3.233484542692898756e-01,  3.233484542692898756e-01,  9.392279297499157575e-01, -1.153112011009695126e-01, 
  -1.153112011009695126e-01,  9.392279297499157575e-01, -3.233484542692898756e-01, -3.233484542692898756e-01,  9.392279297499157575e-01, 
  -1.153112011009695126e-01,  1.153112011009695126e-01, -9.392279297499157575e-01,  3.233484542692898756e-01,  3.233484542692898756e-01, 
  -9.392279297499157575e-01,  1.153112011009695126e-01, -1.153112011009695126e-01, -9.392279297499157575e-01,  3.233484542692898756e-01, 
  -3.233484542692898756e-01, -9.392279297499157575e-01,  1.153112011009695126e-01,  1.153112011009695126e-01, -9.392279297499157575e-01, 
  -3.233484542692898756e-01,  3.233484542692898756e-01, -9.392279297499157575e-01, -1.153112011009695126e-01, -1.153112011009695126e-01, 
  -9.392279297499157575e-01, -3.233484542692898756e-01, -3.233484542692898756e-01, -9.392279297499157575e-01, -1.153112011009695126e-01, 
   3.233484542692898756e-01,  1.153112011009695126e-01,  9.392279297499157575e-01,  1.153112011009695126e-01,  3.233484542692898756e-01, 
   9.392279297499157575e-01,  3.233484542692898756e-01, -1.153112011009695126e-01,  9.392279297499157575e-01,  1.153112011009695126e-01, 
  -3.233484542692898756e-01,  9.392279297499157575e-01, -3.233484542692898756e-01,  1.153112011009695126e-01,  9.392279297499157575e-01, 
  -1.153112011009695126e-01,  3.233484542692898756e-01,  9.392279297499157575e-01, -3.233484542692898756e-01, -1.153112011009695126e-01, 
   9.392279297499157575e-01, -1.153112011009695126e-01, -3.233484542692898756e-01,  9.392279297499157575e-01,  3.233484542692898756e-01, 
   1.153112011009695126e-01, -9.392279297499157575e-01,  1.153112011009695126e-01,  3.233484542692898756e-01, -9.392279297499157575e-01, 
   3.233484542692898756e-01, -1.153112011009695126e-01, -9.392279297499157575e-01,  1.153112011009695126e-01, -3.233484542692898756e-01, 
  -9.392279297499157575e-01, -3.233484542692898756e-01,  1.153112011009695126e-01, -9.392279297499157575e-01, -1.153112011009695126e-01, 
   3.233484542692898756e-01, -9.392279297499157575e-01, -3.233484542692898756e-01, -1.153112011009695126e-01, -9.392279297499157575e-01, 
  -1.153112011009695126e-01, -3.233484542692898756e-01, -9.392279297499157575e-01};
static const double unitSphereLebedevWeight5[266] = {
  -1.650930975569370185e-02, -1.650930975569370185e-02, -1.650930975569370185e-02, -1.650930975569370185e-02, -1.650930975569370185e-02, 
  -1.650930975569370185e-02, -3.170154386474473285e-02, -3.170154386474473285e-02, -3.170154386474473285e-02, -3.170154386474473285e-02, 
  -3.170154386474473285e-02, -3.170154386474473285e-02, -3.170154386474473285e-02, -3.170154386474473285e-02, -3.170154386474473285e-02, 
  -3.170154386474473285e-02, -3.170154386474473285e-02, -3.170154386474473285e-02,  5.261355758561784418e-02,  5.261355758561784418e-02, 
   5.261355758561784418e-02,  5.261355758561784418e-02,  5.261355758561784418e-02,  5.261355758561784418e-02,  5.261355758561784418e-02, 
   5.261355758561784418e-02,  6.679237068674556688e-02,  6.679237068674556688e-02,  6.679237068674556688e-02,  6.679237068674556688e-02, 
   6.679237068674556688e-02,  6.679237068674556688e-02,  6.679237068674556688e-02,  6.679237068674556688e-02,  6.679237068674556688e-02, 
   6.679237068674556688e-02,  6.679237068674556688e-02,  6.679237068674556688e-02,  6.679237068674556688e-02,  6.679237068674556688e-02, 
   6.679237068674556688e-02,  6.679237068674556688e-02,  6.679237068674556688e-02,  6.679237068674556688e-02,  6.679237068674556688e-02, 
   6.679237068674556688e-02,  6.679237068674556688e-02,  6.679237068674556688e-02,  6.679237068674556688e-02,  6.679237068674556688e-02, 
   5.348412394543959614e-02,  5.348412394543959614e-02,  5.348412394543959614e-02,  5.348412394543959614e-02,  5.348412394543959614e-02, 
   5.348412394543959614e-02,  5.348412394543959614e-02,  5.348412394543959614e-02,  5.348412394543959614e-02,  5.348412394543959614e-02, 
   5.348412394543959614e-02,  5.348412394543959614e-02,  5.348412394543959614e-02,  5.348412394543959614e-02,  5.348412394543959614e-02, 
   5.348412394543959614e-02,  5.348412394543959614e-02,  5.348412394543959614e-02,  5.348412394543959614e-02,  5.348412394543959614e-02, 
   5.348412394543959614e-02,  5.348412394543959614e-02,  5.348412394543959614e-02,  5.348412394543959614e-02,  5.167897791314544909e-02, 
   5.167897791314544909e-02,  5.167897791314544909e-02,  5.167897791314544909e-02,  5.167897791314544909e-02,  5.167897791314544909e-02, 
   5.167897791314544909e-02,  5.167897791314544909e-02,  5.167897791314544909e-02,  5.167897791314544909e-02,  5.167897791314544909e-02, 
   5.167897791314544909e-02,  5.167897791314544909e-02,  5.167897791314544909e-02,  5.167897791314544909e-02,  5.167897791314544909e-02, 
   5.167897791314544909e-02,  5.167897791314544909e-02,  5.167897791314544909e-02,  5.167897791314544909e-02,  5.167897791314544909e-02, 
   5.167897791314544909e-02,  5.167897791314544909e-02,  5.167897791314544909e-02,  4.518345242576232712e-02,  4.518345242576232712e-02, 
   4.518345242576232712e-02,  4.518345242576232712e-02,  4.518345242576232712e-02,  4.518345242576232712e-02,  4.518345242576232712e-02, 
   4.518345242576232712e-02,  4.518345242576232712e-02,  4.518345242576232712e-02,  4.518345242576232712e-02,  4.518345242576232712e-02, 
   4.518345242576232712e-02,  4.518345242576232712e-02,  4.518345242576232712e-02,  4.518345242576232712e-02,  4.518345242576232712e-02, 
   4.518345242576232712e-02,  4.518345242576232712e-02,  4.518345242576232712e-02,  4.518345242576232712e-02,  4.518345242576232712e-02, 
   4.518345242576232712e-02,  4.518345242576232712e-02,  5.085789103954399537e-02,  5.085789103954399537e-02,  5.085789103954399537e-02, 
   5.085789103954399537e-02,  5.085789103954399537e-02,  5.085789103954399537e-02,  5.085789103954399537e-02,  5.085789103954399537e-02, 
   5.085789103954399537e-02,  5.085789103954399537e-02,  5.085789103954399537e-02,  5.085789103954399537e-02,  5.085789103954399537e-02, 
   5.085789103954399537e-02,  5.085789103954399537e-02,  5.085789103954399537e-02,  5.085789103954399537e-02,  5.085789103954399537e-02, 
   5.085789103954399537e-02,  5.085789103954399537e-02,  5.085789103954399537e-02,  5.085789103954399537e-02,  5.085789103954399537e-02, 
   5.085789103954399537e-02,  5.315050376041538516e-02,  5.315050376041538516e-02,  5.315050376041538516e-02,  5.315050376041538516e-02, 
   5.315050376041538516e-02,  5.315050376041538516e-02,  5.315050376041538516e-02,  5.315050376041538516e-02,  5.315050376041538516e-02, 
   5.315050376041538516e-02,  5.315050376041538516e-02,  5.315050376041538516e-02,  5.315050376041538516e-02,  5.315050376041538516e-02, 
   5.315050376041538516e-02,  5.315050376041538516e-02,  5.315050376041538516e-02,  5.315050376041538516e-02,  5.315050376041538516e-02, 
   5.315050376041538516e-02,  5.315050376041538516e-02,  5.315050376041538516e-02,  5.315050376041538516e-02,  5.315050376041538516e-02, 
   5.116357072843307624e-02,  5.116357072843307624e-02,  5.116357072843307624e-02,  5.116357072843307624e-02,  5.116357072843307624e-02, 
   5.116357072843307624e-02,  5.116357072843307624e-02,  5.116357072843307624e-02,  5.116357072843307624e-02,  5.116357072843307624e-02, 
   5.116357072843307624e-02,  5.116357072843307624e-02,  5.116357072843307624e-02,  5.116357072843307624e-02,  5.116357072843307624e-02, 
   5.116357072843307624e-02,  5.116357072843307624e-02,  5.116357072843307624e-02,  5.116357072843307624e-02,  5.116357072843307624e-02, 
   5.116357072843307624e-02,  5.116357072843307624e-02,  5.116357072843307624e-02,  5.116357072843307624e-02,  5.116357072843307624e-02, 
   5.116357072843307624e-02,  5.116357072843307624e-02,  5.116357072843307624e-02,  5.116357072843307624e-02,  5.116357072843307624e-02, 
   5.116357072843307624e-02,  5.116357072843307624e-02,  5.116357072843307624e-02,  5.116357072843307624e-02,  5.116357072843307624e-02, 
   5.116357072843307624e-02,  5.116357072843307624e-02,  5.116357072843307624e-02,  5.116357072843307624e-02,  5.116357072843307624e-02, 
   5.116357072843307624e-02,  5.116357072843307624e-02,  5.116357072843307624e-02,  5.116357072843307624e-02,  5.116357072843307624e-02, 
   5.116357072843307624e-02,  5.116357072843307624e-02,  5.116357072843307624e-02,  5.128228060656845472e-02,  5.128228060656845472e-02, 
   5.128228060656845472e-02,  5.128228060656845472e-02,  5.128228060656845472e-02,  5.128228060656845472e-02,  5.128228060656845472e-02, 
   5.128228060656845472e-02,  5.128228060656845472e-02,  5.128228060656845472e-02,  5.128228060656845472e-02,  5.128228060656845472e-02, 
   5.128228060656845472e-02,  5.128228060656845472e-02,  5.128228060656845472e-02,  5.128228060656845472e-02,  5.128228060656845472e-02, 
   5.128228060656845472e-02,  5.128228060656845472e-02,  5.128228060656845472e-02,  5.128228060656845472e-02,  5.128228060656845472e-02, 
   5.128228060656845472e-02,  5.128228060656845472e-02,  5.128228060656845472e-02,  5.128228060656845472e-02,  5.128228060656845472e-02, 
   5.128228060656845472e-02,  5.128228060656845472e-02,  5.128228060656845472e-02,  5.128228060656845472e-02,  5.128228060656845472e-02, 
   5.128228060656845472e-02,  5.128228060656845472e-02,  5.128228060656845472e-02,  5.128228060656845472e-02,  5.128228060656845472e-02, 
   5.128228060656845472e-02,  5.128228060656845472e-02,  5.128228060656845472e-02,  5.128228060656845472e-02,  5.128228060656845472e-02, 
   5.128228060656845472e-02,  5.128228060656845472e-02,  5.128228060656845472e-02,  5.128228060656845472e-02,  5.128228060656845472e-02, 
   5.128228060656845472e-02};

static const double unitSphereLebedevCrd6[906] = {
   1.000000000000000000e+00,  0.000000000000000000e+00,  0.000000000000000000e+00, -1.000000000000000000e+00,  0.000000000000000000e+00, 
   0.000000000000000000e+00,  0.000000000000000000e+00,  1.000000000000000000e+00,  0.000000000000000000e+00,  0.000000000000000000e+00, 
  -1.000000000000000000e+00,  0.000000000000000000e+00,  0.000000000000000000e+00,  0.000000000000000000e+00,  1.000000000000000000e+00, 
   0.000000000000000000e+00,  0.000000000000000000e+00, -1.000000000000000000e+00,  5.773502691896258421e-01,  5.773502691896258421e-01, 
   5.773502691896258421e-01,  5.773502691896258421e-01,  5.773502691896258421e-01, -5.773502691896258421e-01,  5.773502691896258421e-01, 
